3557 32
the -0.35595083 0.72866905 -0.6031122 0.24538122 0.21230699 0.614795 0.28391156 -0.72017336 0.3975649 0.06948202 -0.30340302 -0.7544308 -0.28277165 -0.054030333 -0.67191106 0.23230264 -0.05202335 -0.083122276 0.3325544 -0.480383 -0.013768262 0.3820274 -0.09464838 -0.055054974 0.58418375 -0.013031905 0.21392974 -0.5249051 0.1136863 -0.25079033 0.16907266 0.04066765
, -0.35647297 0.4891359 -0.21402858 0.35129753 0.3820468 0.46439815 -0.027719699 -0.4721599 0.04994364 0.084180325 0.16947691 -0.37507692 -0.16104594 0.5635433 -0.2722284 -0.027595786 0.07309286 -0.0048367823 0.18744059 -0.42149496 -0.024620265 0.30717248 0.017281963 0.30758497 0.3326181 -0.07074532 -0.036998797 -0.08830628 -0.17583138 -0.29270726 0.11250867 -0.4160842
in -0.52717847 0.636918 -0.17919542 0.44798183 0.48644295 0.5513028 0.3232155 -0.6133924 -0.13834049 0.13094011 -0.026738234 -0.66115946 -0.13013777 0.20921333 -0.44134647 0.23821591 0.41598633 0.021285426 0.15947452 -0.46266142 -0.3684642 0.20153058 -0.267773 -0.19668005 0.42137554 -0.2959979 -0.2705161 -0.26479667 0.17397021 -0.029115872 -0.03465125 -0.58521897
of -0.376249 0.75687015 -0.13268314 0.10279094 0.3326122 0.7778828 0.08250351 -0.49210858 0.12706321 -0.08210481 0.14432894 -0.46207055 0.2843819 0.22289634 -0.50945467 0.10061914 0.47330287 -0.16842885 0.28016952 -0.3480507 -0.2525719 -0.03142198 -0.4421889 -0.47759935 0.22250481 -0.27367413 -0.53739643 -0.17007473 0.15304229 0.06524387 0.5141156 -0.75189143
to -0.49824697 0.5489455 0.13242342 -0.15166587 0.380386 0.5641482 -0.40630707 -0.3698248 0.044703044 -0.011317934 -0.06763465 -0.36845526 -0.1757961 0.044591498 0.13784027 -0.24425566 0.65347695 0.29898056 0.18498255 -0.2230273 0.1406073 0.44994023 -0.4566029 0.60923713 0.06451195 -0.4336086 -0.48371816 0.22788595 -0.41610372 -0.0059330873 0.04559237 -0.24402153
a -0.3618321 0.2914442 -0.13817118 0.014843164 0.23770042 0.3773724 -0.15344852 -0.29055867 0.3646679 0.20472422 -0.122077145 -0.65164155 -0.20562874 0.19504985 0.14792709 0.05097935 0.14247747 0.21902193 -0.07789656 -0.47684667 0.028288703 0.373571 -0.09131037 0.50841755 0.4335628 -0.38687357 -0.23129399 -0.18614264 -0.38277778 -0.4387984 0.45373955 -0.024834432
and -0.2330822 0.5454023 -0.23288204 0.15554817 0.48384795 0.45305052 -0.23538135 -0.38313848 0.1522183 0.085845225 0.0598978 -0.2721886 -0.023610547 0.4949139 -0.23322357 -0.028343257 0.25977883 0.07944341 0.20880707 -0.2913191 0.045025554 0.24043734 -0.1448926 0.24746892 0.14603034 -0.19436774 -0.35606816 0.019430557 -0.22488017 -0.13270277 0.18227555 -0.2608371
says -0.9603329 0.8027231 -0.89097416 0.15193413 0.18303446 0.45002207 0.13723426 -0.2733611 -0.10420557 0.48436597 -0.21214205 -0.08166836 -0.03139781 0.65569544 -0.11938529 -0.25038067 -0.07285708 -0.021000441 -0.17408065 -0.81892115 -0.028114755 0.3230254 -0.2391141 0.5091798 0.33240566 -0.30317816 -0.70085615 -0.12220419 -0.250388 0.08537411 -0.18043852 0.56209475
for -0.4597317 0.58954746 -0.09607688 0.027232055 0.10094534 0.618521 -0.19796759 -0.38171157 0.17406723 0.08723138 -0.14858656 -0.30711028 -0.118517205 0.4257482 -0.01678548 0.064442836 0.40536955 0.14003488 0.33320895 -0.49300244 0.006953784 0.16496359 -0.5631199 0.15998974 0.17324467 -0.08298137 -0.2738178 0.16968088 -0.16667117 -0.12846129 0.3147903 -0.42330554
that -0.24597801 0.728108 -0.21104144 0.22040732 0.3129944 0.3482643 -0.35657015 -0.3967827 -0.037387785 0.051406823 0.20611933 -0.0010558176 -0.18379444 0.26834807 -0.08975593 -0.059554614 0.2699403 -0.32496342 0.12742157 -0.32145673 0.052714754 0.43250212 -0.05561813 0.4555517 0.22610416 -0.34655383 -0.10909632 -0.09856021 -0.60107934 -0.29852688 0.1884522 -0.24536249
is -0.45133236 0.72209275 -0.28632674 0.15887827 0.40609348 0.3537264 0.00608093 -0.5500269 -0.1514918 0.09752249 0.09589366 -0.24954535 -0.052397046 0.49710286 -0.48811668 0.1918828 0.14563145 -0.11154929 0.37766075 -0.28601968 -0.014461485 0.38769042 -0.029967634 0.05918958 0.46916798 -0.08656332 -0.10881024 -0.24726288 -0.113929205 0.07904893 0.37093905 -0.21783066
on -0.39528936 0.6593945 -0.048559804 -0.12929441 0.22257903 0.6251601 -0.2718649 -0.3660893 0.06412267 0.12399399 0.010508633 -0.39552888 -0.16376336 0.45607814 -0.06332599 -0.013478149 0.42668322 0.10854481 0.22829315 -0.2943651 0.034058947 0.069981076 -0.4439366 0.20667572 0.016382342 -0.12248609 -0.22217768 0.06034259 -0.30111971 0.033354573 0.38865456 -0.2566205
has -0.5986207 0.84901 -0.75665087 0.5943763 0.4013463 0.37747744 0.35449582 -0.00868535 -0.5203551 0.112482294 -0.10464376 -0.31830376 -0.056825146 0.7185428 -0.49681935 0.063845515 0.12877871 0.02199495 0.5566117 -0.34541664 -0.19618629 0.22606379 0.2587896 -0.17821576 0.61255425 -0.16127197 -0.7607757 -0.046659492 -0.17325836 -0.026502032 -0.11486936 0.07314703
have -0.14643444 0.93500704 -0.06667179 0.59139496 0.115648404 0.50471896 -0.4575498 -0.26195645 -0.3312411 0.025732571 0.36961013 -0.27152333 -0.14604697 0.6960825 -0.6116072 -0.072213806 0.40560797 -0.26495898 0.6608881 0.14415358 -0.054740585 0.14277124 0.6119824 -0.11542143 0.16707219 -0.034331508 -0.29779097 0.103197224 -0.90871227 -0.2861851 0.060920548 -0.62066054
percent -0.23956072 0.19245134 -0.2006978 0.28899127 0.9322279 0.9398006 0.38285562 -0.14455575 0.5016603 0.43413028 0.084161386 -0.8702036 -0.24091081 0.33303353 -0.21706618 -0.04504981 1.0403343 0.23369439 0.3403809 0.021214519 -0.0012374357 -0.39866492 0.17725 -0.41372222 0.50649625 -0.34022143 -0.06313007 -0.26009437 0.07467554 -0.481441 0.7618529 -0.25321534
are 0.011706627 0.8467728 0.080670714 0.24297263 0.5632856 0.42166704 -0.35706517 -0.44608456 0.05619566 0.15257843 0.43117753 -0.7011593 0.12964565 0.6734824 -0.82852966 -0.11103504 0.53068787 -0.019690419 0.25355408 0.29587018 -0.13529646 0.28756264 0.40149194 -0.12738581 0.30136913 -0.19150655 -0.13087341 -0.63128597 -0.40296692 0.33985078 0.31164637 -0.38653532
than -0.07255842 0.84217304 0.042439282 0.7664882 1.0172778 0.6038669 0.030034002 -0.15606336 -0.40020406 0.79983574 0.8234733 -0.6446101 -0.51562065 0.8243733 -0.13193604 -0.011657566 0.4867725 0.42919526 0.6328429 -0.111580715 0.017951924 0.08203393 0.10567916 -0.5506315 0.008986338 -0.17637281 -0.45537418 -0.07023138 0.057522025 -0.14917699 0.24275006 -0.24421623
we 0.48887646 0.57834727 0.10981664 0.54529774 0.67417043 0.8533618 -0.2642527 -0.2906266 0.19771431 0.1602548 0.40555024 -0.50226647 -0.41747898 0.21202168 0.30330622 0.1154481 0.19268088 -0.36838713 0.2129025 -0.18073441 0.16732816 0.86675453 0.4168436 0.48146084 0.23906338 -0.4574455 -0.08327025 0.09108225 -0.5308202 -0.8715867 -0.25321627 -0.6636238
was -0.73811364 0.71531326 -0.37332064 0.5045813 0.30240777 0.484126 -0.17774083 -0.44311297 -0.09057105 0.19728243 0.22401339 0.16874054 -0.18127318 0.7337378 -0.08549105 0.08439423 -0.2521474 -0.12799346 -0.20685409 -0.32681555 -0.16071886 0.51329017 0.24447632 0.46720135 0.72996294 -0.01952398 -0.037802737 -0.11348047 -0.4046994 -0.16230963 0.17910413 -0.18628931
more 0.20914584 0.27366394 -0.16714393 -0.037224416 1.0345377 0.90557903 -0.061096016 -0.045704376 0.39210454 0.07590282 0.3560595 -0.7489539 -0.21736726 0.82343996 0.039258152 0.39476553 0.35748225 -0.03090401 0.53341347 0.20630907 0.15680693 0.32185912 -0.08791875 -0.26816276 -0.059488405 -0.67540985 -0.0127727045 -0.11004857 -0.5619845 -0.66543156 0.03150528 -0.34593073
) 0.026564432 0.867729 -0.41347373 -0.040819913 0.3207527 0.4967727 -0.044612963 0.11323046 0.19024947 -0.098146304 0.21539906 -0.4078462 0.09161336 1.1658435 -0.31324625 -0.116559386 -0.1687085 -0.3252335 -0.12840669 -0.4492126 0.46368322 -0.38020048 -0.6909116 0.6319763 0.22866876 -0.53047776 0.105388805 -0.06916559 -0.39584506 -0.21000169 0.39983097 0.101630665
( -0.097699516 0.32424703 -0.7537679 0.28866535 0.7715848 0.690117 -0.42677313 -0.6567136 0.37000692 0.5869501 0.015728394 0.30178285 -0.16350381 0.84223413 -0.34462377 -0.28622258 -0.0941122 0.054635223 -0.2936433 -0.77090764 0.13126503 -0.06009203 0.09646353 0.27120686 0.04817596 0.0928379 -0.43040538 -0.18980157 -0.086786956 -0.004914245 0.4413813 0.16490789
by -0.3950908 0.34874594 -0.31839794 0.010662954 0.4274243 0.6753404 0.20397364 -0.089319564 -0.08565587 0.08897953 -0.14325131 -0.41390327 -0.1375447 0.43762928 -0.08740028 0.0026562847 0.53719056 0.08993507 0.3367339 -0.37208694 0.05560108 -0.04250716 -0.13074054 -0.051562138 0.16594431 -0.28490403 -0.54460806 0.098883085 -0.3279879 -0.28361702 0.3816006 -0.17488025
state -0.22851494 0.63806003 -0.45165455 0.12562671 0.5591542 0.33823416 0.0012398802 -0.6113879 0.0778979 0.25257027 -0.047126666 -0.19643839 -0.31023633 0.25835842 -0.55777174 0.3034815 0.45519266 -0.013870691 0.04908545 -0.43932745 0.16866444 0.0153695475 -0.43762404 -0.0876 0.43418556 -0.39721772 -0.10096834 -0.1866046 0.08108357 -0.123712 0.5402986 -0.13950159
it -0.097796485 0.50499874 -0.20818834 0.22266228 0.42733815 0.64227885 -0.47778794 -0.4050754 0.08490362 0.011098781 0.24571455 0.006706545 -0.38257146 0.30218384 0.23952927 -0.0036255294 -0.030585963 -0.40148845 0.19399364 -0.08998532 0.122412086 0.63796026 0.023425452 0.6202666 0.14101657 -0.4137729 0.09556217 -0.072337314 -0.69000024 -0.83993953 0.31266922 -0.37975025
from -0.39929974 0.51800567 -0.05334936 0.08173899 0.4186513 0.56535345 -0.09975055 -0.32216394 0.036195304 0.18546675 0.025009217 -0.41475293 0.02486492 0.28779164 -0.2197173 -0.10054473 0.5469314 0.05441155 0.13475034 -0.2754203 0.018461645 0.0063719237 -0.17435573 0.13874775 0.12905413 -0.33630323 -0.44830602 -0.046848144 -0.26528585 0.0188464 0.3170014 -0.3333113
obama -0.58884555 0.85029924 -0.8611513 0.19253781 0.5067468 0.88049275 0.5042628 -0.028696278 -0.23875217 0.61794484 0.010852516 0.655922 -0.5180736 0.6505722 0.14789829 0.099374264 -0.34922943 -0.4383687 0.68708366 -0.7183529 0.300646 0.75286907 -0.07859466 0.38256767 -0.12366022 -0.2951069 -0.3897532 0.13021779 -0.745422 -0.8014846 -0.12057223 0.16363813
with -0.39729464 0.5739113 -0.332361 0.09977188 0.35951197 0.53004944 -0.1257479 -0.2949122 0.025790347 0.070026696 -0.034539588 -0.10933125 -0.049152594 0.3582452 -0.3203393 -0.055657573 0.3031308 -0.09411744 0.21874653 -0.3617356 -0.044708893 0.24630448 -0.12734869 0.18915053 0.13867675 -0.34295171 -0.32257864 -0.058304906 -0.34280688 -0.1415438 0.11118734 -0.22310087
as -0.4546064 0.66301936 -0.3664691 0.1830935 0.1538172 0.30802384 -0.24057083 -0.49975744 -0.13288358 0.29891276 0.22856249 -0.3399827 0.04612358 0.39612222 0.104249805 -0.014637339 0.11927808 0.13325949 0.033953175 -0.22328451 -0.49936187 0.40983003 0.0042962823 0.35761148 0.51815236 -0.48233438 -0.1713059 0.000271426 -0.13631447 -0.4425486 0.26737857 -0.296254
tax -0.61073506 0.7271829 -0.32561928 -0.54085153 0.40392554 0.6039333 0.03614177 -0.19921583 -0.053365517 -0.054373797 -0.3444645 -0.35090312 -0.7134979 0.026657432 0.09297436 0.46078837 0.6440173 0.3805814 0.510417 -0.48193127 -0.0012756259 0.029541884 -0.2879416 0.17672141 0.0950238 0.12074418 0.027377741 0.5465545 -0.50355333 -0.3591128 0.7317842 -0.19645582
not -0.12683792 0.8396123 -0.117146425 0.33244443 0.33265552 0.5014589 -0.63138086 -0.43245855 -0.08527121 0.06737262 0.34925345 -0.0043229377 -0.26239046 -0.029901007 -0.07036164 0.12220261 0.27982655 -0.53619224 0.15716667 -0.26404262 -0.11297932 0.691847 -0.05011239 0.62711537 0.04237573 -0.4230002 0.0025694375 -0.16934444 -0.6677916 -0.3723584 0.17646523 -0.28720376
our -0.15962897 0.6296582 -0.17943163 0.004034209 0.52749205 0.5290437 -0.058879506 -0.57756454 0.23934475 0.067130074 -0.18384089 -0.6158112 -0.3256617 -0.041707315 -0.35437545 0.1970778 0.39879256 0.027941814 0.4098559 -0.2528778 -0.030801976 0.23802416 -0.03058811 -0.036628384 0.4493588 -0.27792463 0.05694107 -0.29850534 -0.116287485 -0.2524279 0.46005845 -0.1287361
year -0.065488406 0.39882722 -0.12199373 0.3440368 0.6023132 0.9383405 0.48026952 -0.37025762 0.06251247 0.36396965 -0.16697668 -0.4060953 -0.37869704 0.8707559 -0.039058343 0.46372938 0.5040455 0.02470245 -0.114755176 -0.55493605 -0.28649646 -0.09914243 0.26200888 -0.0056990655 0.21211931 -0.26644352 0.27930605 0.23123834 -0.027780255 -0.6292102 0.23485126 -0.9592724
he -0.4720553 0.76985824 -0.62135804 0.31116134 -0.0037356871 0.576285 -0.31430674 -0.33870867 0.019874878 -0.040841334 0.18969244 0.37860957 -0.22746527 0.63260937 0.41246322 -0.05190264 -0.09651018 -0.57460785 -0.14616172 -0.3595917 0.11850111 0.7859177 0.049455006 0.8636746 0.46500114 -0.41611594 -0.13397023 0.028294709 -0.8190349 -0.6495725 -0.022398453 -0.07054601
years -0.13938253 0.5399052 -0.4752113 0.70999926 0.5308281 1.0540426 0.9228949 -0.4003723 0.30198443 0.5622166 0.42671043 -0.75013703 -0.40561068 0.8915105 0.10997046 0.22388752 0.31815505 -0.07861131 0.0008734902 -0.50335103 -0.26965427 -0.01866327 0.5948009 -0.34764263 0.4789254 -0.11527021 0.32408658 -0.0037190702 0.18772931 -1.0859151 0.06692929 -0.8172397
health 0.20484887 0.49724156 -0.26410747 0.123192325 0.5255972 0.6302171 -0.7011871 -0.59365535 -0.09476889 0.1732372 -0.46954644 -0.45207024 0.28173622 0.19516914 -0.86256933 -0.3988677 0.26849207 -0.5126526 0.90803057 -0.9821361 0.91868 -0.28412247 -1.3304137 0.57151175 0.2560839 0.25279433 -0.14945179 -0.09018009 -0.83607346 -0.71188986 0.57024074 -0.15876736
president -0.5841377 0.6610994 -1.0283006 0.48330522 0.88187665 0.8155188 0.5003475 -0.13643393 -0.026143642 0.3650679 -0.02275267 0.30026558 -0.24842346 0.7810802 -0.17108242 0.39951676 -0.46990386 -0.70503885 0.48026845 -0.55827564 0.32461485 0.6939972 -0.14624286 0.47699985 0.3271026 -0.10804544 -0.01473448 0.13477035 -0.4993312 -0.76112735 -0.19916661 0.4225032
people 0.26314554 0.55820376 0.41634047 0.2689716 0.81028616 0.7501749 -0.41160113 -0.26286396 0.09894034 0.32818502 0.26846826 -0.5294179 -0.055915117 0.24365453 -0.3217932 0.11474343 0.55079585 -0.018359795 0.18615206 0.053868294 -0.037922576 0.35194823 0.1862048 0.082037404 0.1324362 -0.5168112 -0.15938275 -0.3096179 -0.5266895 -0.14304449 0.5624969 -0.3001027
states -0.15913971 0.6108937 -0.71135855 0.56506187 0.99355155 0.9718313 0.37758264 -0.43601468 -0.035169 0.5679701 0.6170451 -0.63033116 -0.1609195 -0.41153967 -0.95482415 0.365375 0.11258946 -0.48664862 0.15092409 -0.27222502 -0.052773133 0.8588439 -0.4049325 0.03638884 0.39789972 -0.08746287 0.15054253 -0.8652523 0.27162528 0.041451637 0.3940268 -0.4982022
would -0.6025236 0.5730723 0.17480087 -0.013068977 0.4689675 0.3193076 -0.5960769 -0.5591551 0.08107374 -0.030323673 0.06866888 -0.18543299 -0.268512 0.25312084 0.0172818 -0.042930964 0.418137 0.29378206 0.24095604 -0.46319214 0.59669906 0.6250109 -0.48239073 0.89963984 0.16066518 -0.02829731 -0.16195117 0.328073 -0.6934084 0.05670015 0.16129299 -0.17609864
at -0.3295506 0.6182842 -0.09109605 0.3657256 0.6545632 0.5461059 -0.09204334 -0.4513016 -0.022454172 0.07950312 0.18821144 -0.3428415 -0.12863834 0.26208174 -0.109376796 0.18840913 0.47877267 -0.07543046 0.37340516 -0.08683199 -0.2364757 0.14356114 -0.09644487 -0.036503762 0.30391365 -0.42402312 -0.08965256 -0.12202039 0.027930215 -0.36111674 0.3007232 -0.6952504
million 0.032130115 0.119261496 -0.048862737 0.012068676 0.7300562 1.046841 0.15484558 0.14937443 0.41350138 0.31826207 -0.022403546 -0.9244024 -0.22644903 0.46579367 0.14411764 0.093720846 1.0268288 0.5325912 0.098591134 0.11052416 -0.033076692 -0.23343742 0.3694225 -0.18093486 0.37884223 -0.35097674 -0.43169868 0.14533886 -0.6898979 -0.62492335 0.73403215 -0.534706
i -0.15824278 0.75983006 -0.19741625 0.5982419 0.34457654 0.6112811 -0.36336705 -0.36364353 0.076559745 0.004951619 0.38183898 0.13406442 -0.34409475 0.42008612 0.3397308 -0.045630902 -0.13648567 -0.50154257 -0.09388685 -0.33537155 0.0782351 0.9118042 0.10543504 0.82980984 0.53260285 -0.38971946 -0.02529034 0.10880915 -0.5063761 -0.80753446 -0.14908399 -0.4861014
an -0.3108148 0.6401292 -0.15095626 0.043593436 0.25298613 0.5102307 -0.12299182 -0.22648238 0.28281894 0.19522643 -0.119316675 -0.46632642 -0.18823 0.24240628 0.04526216 0.051691942 0.27181873 0.04990776 0.119051054 -0.16702525 -0.014677644 0.30241826 0.016864173 0.34759036 0.21665302 -0.41944262 -0.1446186 -0.14950137 -0.3719435 -0.25053298 0.30543375 -0.008098113
be -0.30503616 0.7883832 0.17552023 -0.024332218 -0.002986595 0.7820736 -0.49415103 -0.48241347 0.041582555 0.28275743 0.06138436 -0.06055669 -0.4178655 -0.17144218 -0.13462946 0.1621462 0.46373725 -0.5189506 0.5886092 -0.0042549917 -0.06416308 0.58036166 0.31532547 0.44234315 -0.0820999 -0.14942041 0.07341962 0.14659192 -1.1586376 -0.43182373 0.52467644 -0.3142216
his -0.5368667 0.35647547 -0.67333925 -0.10931374 0.25348213 0.64087665 0.08341032 -0.42448762 0.35106787 0.16437003 -0.26051998 -0.14411777 -0.2691061 0.4872525 0.057297543 0.09377435 -0.004358501 0.065332115 0.20651294 -0.46833065 0.22444005 0.34618178 -0.11921877 0.5115195 0.36956826 -0.04372058 -0.06936738 0.14618225 -0.37691146 -0.3030434 0.31277314 0.25759107
you 0.29395646 0.66764146 0.12990758 0.15315995 0.35310158 0.6632257 -0.8822015 -0.7518475 0.27683768 -0.055399667 0.20600156 -0.12616172 -0.1337558 -0.04150087 -0.14321561 -0.33406228 0.33228385 -0.38834706 0.23530719 -0.14021063 0.3274853 1.1662337 0.1465112 1.1014332 0.003600104 -0.44853702 -0.025959244 -0.21977907 -0.5908136 -0.4700085 0.14638841 -0.6747085
care -0.06656559 0.40247244 -0.83158195 -0.50522864 0.6336885 0.79432535 -0.8458836 -0.9086557 0.74428546 0.20151871 -0.17759591 0.15838204 -0.3396032 0.33985958 -1.0774144 0.19943388 0.3563282 -0.4185692 0.3494192 -0.9558894 0.89018077 0.3205103 -0.7725258 0.5864233 -0.4566958 0.4651694 0.31502315 0.30980986 -0.6088225 -0.1805841 1.0210826 -0.5283471
one -0.29686484 0.64191985 -0.069864355 0.5008429 0.6149951 0.46758124 -0.054549135 -0.5416757 0.116231434 0.041472506 0.17901914 -0.16519715 -0.374041 0.12892194 -0.3841049 0.2036344 0.3662948 -0.15068017 -0.021279328 -0.2852933 -0.20085438 0.30381945 0.09698227 0.067360364 0.5453655 -0.65171474 0.10935105 -0.49755052 0.05433604 -0.5575282 0.47021186 -0.24743958
their 0.24488571 0.4326877 -0.07118541 -0.22481549 0.5162429 0.598453 -0.55146366 -0.5097382 0.5437745 0.07066825 -0.07902755 -0.75191534 -0.085637465 0.07519692 -0.49870047 -0.17913334 0.54908574 -0.053888284 0.55788654 -0.101433784 0.30990398 0.20603792 -0.1057158 0.3402338 0.04578428 -0.000110150104 -0.0070259445 0.015951298 -0.41230115 -0.2578141 0.57965535 -0.46576387
were -0.094702914 0.6496712 0.084369056 0.45623156 0.6374265 0.522866 -0.17005695 -0.42779192 0.06486019 0.1025923 0.39600503 -0.4196963 -0.063630484 0.66748023 -0.40245995 0.11309543 0.21146388 -0.12132577 0.23989618 0.1277766 -0.052597187 0.46595168 0.39020514 0.07361076 0.42397514 -0.208798 0.008030889 -0.35145175 -0.46520677 -0.17155324 0.1284881 -0.4044729
this -0.2630372 0.54743963 -0.17706844 0.562549 0.55191493 0.28405166 -0.010311355 -0.7079097 0.2754559 0.117259696 0.07532808 -0.42088905 -0.51841366 0.15424137 -0.2355735 0.43766713 -0.21483262 0.07219138 0.32226783 -0.44122308 -0.10043353 0.47933707 -0.20215462 0.13480009 0.6161462 -0.38070977 0.27234095 -0.16454776 -0.16712531 -0.6098955 0.41550544 -0.44921458
over -0.22532536 0.20068985 -0.14330725 0.31856292 0.5469175 0.9911816 0.6183345 -0.25788912 0.2089638 0.31697825 -0.0062704226 -0.62253463 -0.18240404 0.71338576 -0.01172802 0.19728227 0.7166675 0.101444855 -0.02680818 -0.5855514 0.014558329 -0.17975742 0.19968767 -0.38078848 0.3149948 -0.19041556 -0.28151113 0.23141497 -0.25819728 -0.60321456 0.21149524 -0.38493937
jobs 0.34370935 0.26059908 -0.13749518 0.4428316 1.2228917 0.6722083 0.18061982 -0.25206888 -0.098679364 0.4915322 0.020550428 -0.7111065 -0.14915437 0.44574565 -0.4389749 0.270718 0.7518784 0.07170562 0.45815584 -0.2811443 -0.06234838 -0.024559107 0.109783776 -0.23061964 0.22770312 -0.32873365 -0.5258126 0.060403414 -0.2381557 -0.62711364 0.0022374878 -0.33648416
will -0.3040249 0.38253456 0.34368795 0.117461525 0.648204 0.39206815 -0.529851 -0.53378636 0.1417703 -0.04350689 0.03738125 -0.4947825 -0.22082414 0.29885274 -0.28901103 -0.11799139 0.6136433 0.33836728 0.5397305 -0.355078 0.6816442 0.50712585 -0.30736434 0.52875113 -0.03885222 0.00038569368 -0.20535046 0.3151383 -0.64518154 -0.07574975 0.2117219 -0.30880302
new 0.24170311 0.14873952 -0.769156 -0.12710689 0.772772 0.60641724 -0.054565098 -0.4484122 -0.0734355 0.361464 -0.14656086 -0.19691943 -0.104528844 0.2380112 -0.542783 0.2750625 0.63345844 -0.1509064 0.38694823 -0.6639428 0.36381632 -0.29598725 -0.21676753 -0.13434039 0.39033017 0.12641986 -0.3502616 0.05029746 -0.4803724 -0.51631486 0.3425567 -0.35476992
s -0.66061926 1.4046791 -0.6480606 -0.15973677 0.19174683 1.1623008 -0.015332551 -0.4298311 0.36808476 0.64605826 -0.25449497 -0.5223947 -0.5594132 0.37973258 -0.115939766 0.13031733 -0.17180924 0.24536005 -0.51308066 -1.0765418 0.06238855 0.0032788028 -0.7471181 -0.5434991 0.5867262 -0.556783 -0.40734434 -0.43115497 0.049927454 0.6252292 0.60750544 1.0023482
u -0.8722701 1.3832352 -0.9003512 -0.17128468 0.058789935 0.78215164 -0.3336995 -0.12469076 0.5127725 0.22654009 0.4587804 0.2681687 0.0067823613 0.9299259 -0.5197536 0.68351156 0.8722255 0.24127518 -0.7458201 -0.1977978 0.22079147 -0.0729106 -0.1948857 -0.41040137 0.599769 -0.9782112 -0.061067704 -0.45245856 -0.13831404 0.36360714 0.6177162 0.46356496
they 0.32418507 0.5450561 0.08315356 0.30477542 0.5306943 0.6704252 -0.81608194 -0.4290434 0.2892369 0.014823433 0.30037662 -0.2680404 -0.05310386 0.2161415 -0.04612552 -0.18649824 0.22776313 -0.47574076 0.32695043 -0.022458492 0.12648863 0.806512 0.045695495 0.7608766 -0.0003172784 -0.45087314 -0.0027919316 -0.16811351 -0.65587807 -0.6566792 0.14452793 -0.6423935
been 0.22812203 0.7561782 -0.19113241 0.5698777 1.0624211 0.60765254 0.39121217 0.13430196 -0.07885407 0.432602 0.34814644 -0.6573438 -0.06794035 0.32858878 -0.030575171 0.1669441 0.1987564 -0.5217051 0.13503562 -0.3428906 0.12857316 0.66180825 0.17727707 0.26895705 0.35261855 -0.26866484 -0.06319869 -0.13574183 -0.6543755 -0.54328716 -0.44880205 0.08107394
who 0.042536628 0.8528555 0.011669043 0.2196275 0.34480318 0.581424 -0.61380595 -0.14615738 0.36020115 0.1479798 0.2400708 -0.15924548 -0.01795279 0.2091488 -0.04789332 -0.06687512 0.38922203 -0.18346609 -0.09440341 -0.12047098 -0.15654917 0.40049723 -0.0126513 0.4036738 0.036459964 -0.6804463 -0.22055049 -0.41827965 -0.51033735 -0.11015414 0.34095237 -0.16500337
or -0.20743339 0.5692776 0.012141121 0.3105252 0.23112103 0.50798 -0.13863054 -0.30730724 0.2761805 0.25710383 0.14686447 -0.51504153 -0.07061774 0.44610426 -0.050536882 -0.108984746 0.4303596 0.09806028 0.09210737 -0.21552147 -0.088536434 0.2300046 0.1593586 0.13431233 0.13327843 -0.3736773 -0.25006604 -0.09950963 -0.24447264 -0.27075565 0.29777494 -0.4319898
about -0.21647523 0.26440358 -0.036336236 0.38181645 0.48806822 0.7061269 0.021312924 -0.24195823 0.040605363 0.14938168 0.07730317 -0.41507077 -0.07262683 0.46899018 -0.016077304 -0.11891312 0.41822758 -0.046221893 0.16827986 -0.24245626 -0.020742364 0.18539868 0.14582743 0.124308445 0.2392966 -0.2728223 -0.35293233 -0.03301903 -0.37689888 -0.47890812 0.24788778 -0.37880263
when -0.65218467 0.66418415 -0.4088653 0.6479389 0.45963588 0.40765378 -0.29766247 -0.36839396 -0.05747354 0.009025798 0.4612399 0.13326806 -0.06722685 0.85764164 0.034784954 0.03030041 -0.2698605 -0.23948577 -0.024056196 -0.1763069 0.023324374 0.5333631 0.0916437 0.71807116 0.4743417 -0.2640182 -0.07847887 -0.091648586 -0.4610528 -0.5748459 -0.09477475 -0.28672534
billion -0.26548395 0.06279715 -0.083008975 -0.38776284 0.5909109 1.041966 0.46058497 -0.038457863 0.35613328 0.20509689 -0.3458456 -0.8189407 -0.50458443 0.46189952 0.21146886 0.3167488 1.0737427 0.69071263 0.16018273 -0.23813413 0.13456203 -0.20905083 0.16611966 -0.05795466 0.44618803 -0.24015811 -0.3646069 0.364144 -0.5291442 -0.6745111 0.9997227 -0.40844032
all 0.029539887 0.4324235 -0.108065054 0.15440486 0.76946634 0.68455243 -0.21130726 -0.5202015 0.36501437 0.09522497 0.023306064 -0.46632838 -0.1822391 0.22019687 -0.48272312 0.08787423 0.456623 -0.08546898 0.39492163 -0.23650998 0.07849535 0.19025134 -0.20188256 -0.14465511 0.24163279 -0.3245874 -0.010002818 -0.3632016 -0.08690004 -0.258561 0.4109633 -0.12197209
bill -0.3402487 0.69885546 -0.702722 -0.019415755 0.11572237 0.64434814 -0.39152172 -0.347571 -0.044636965 0.2169674 -0.43704936 0.2639895 -0.0019469385 0.3566655 -0.3475629 -0.032648012 0.062482696 -0.2845693 0.1063063 -0.68787384 0.30009067 0.039977286 -0.7124 0.4960793 0.08354385 0.020537836 -0.29284886 -0.0682425 -0.7163 -0.22086759 0.46577403 -0.064607754
texas -0.17776625 0.7342451 -0.4506371 0.19210973 0.43802318 0.434916 0.05690764 -0.3839033 0.15847805 0.22136332 0.12442881 -0.22257468 -0.20166866 0.3292698 -0.37178785 0.307897 0.40456378 -0.07654073 -0.08861082 -0.3564555 -0.056705467 0.15966131 0.061500166 -0.1899528 0.563452 -0.49049416 -0.12666695 -0.40944535 -0.123571016 -0.19372523 0.3368453 0.0916269
only -0.33968917 0.66825074 -0.15037403 0.49410164 0.358362 0.6599327 -0.0989025 -0.51399875 0.13946123 0.04396452 0.2908374 -0.112369895 -0.15155306 0.21462893 -0.2917552 0.18725564 0.25377867 -0.16836299 -0.08881985 -0.4147135 -0.22356977 0.27799308 -0.016436951 -0.12460379 0.4863309 -0.46125597 -0.066950984 -0.36754322 -0.12871934 -0.3529193 0.40331075 -0.19752268
out -0.13231574 0.36412215 0.12106336 0.30673537 0.63529027 0.5115369 -0.2455688 -0.4787449 0.31897694 0.1395493 0.061731912 -0.40803084 -0.12322382 0.34147647 -0.37071243 -0.10693483 0.5061604 0.01935827 -0.004688708 -0.18445401 0.01603659 0.1513419 0.23352508 0.23041609 0.33344266 -0.41612434 -0.0070479154 -0.3274736 -0.19773155 -0.23198071 0.51837623 -0.35428476
every -0.44699457 0.44057626 0.07515045 0.11449735 0.31310767 0.72541475 0.06831112 -0.42393765 0.45858648 0.20065403 0.017891658 -0.600671 -0.4295369 0.19668561 0.038578562 0.396781 0.2992373 0.25825334 -0.016085481 -0.40346885 -0.24943416 0.22762598 -0.043430205 -0.10677435 0.5582575 -0.4140245 -0.05612611 -0.10335549 -0.056074683 -0.35775977 0.65274847 -0.44790104
said -0.7082167 0.76778847 -0.42500982 0.61852825 0.4049054 0.50182444 -0.39379707 -0.3761651 -0.041024137 0.18781751 0.33156297 0.26037943 0.0122288875 0.75637335 -0.0020621442 -0.031389717 -0.3040165 -0.38702232 -0.049879372 -0.32696447 0.09918353 0.66234344 0.14658894 0.9414506 0.24070314 -0.27687594 -0.17240977 -0.117097504 -0.88078004 -0.26966584 -0.25614336 0.12022701
taxes -0.23433445 0.42204234 -0.043341644 -0.42449686 0.57752013 0.85464555 0.004014236 -0.41801843 0.12423834 -0.14662361 -0.10410226 -0.6180871 -0.72090364 0.34297472 0.080660835 0.31700015 0.5349024 0.49089488 0.6648335 -0.057646427 0.26853752 0.13133612 0.08013826 0.2119712 -0.03046179 0.10514714 -0.015632525 0.62049985 -0.73496026 -0.5016755 0.57971025 -0.45286578
under -0.48300153 0.38672516 -0.7521879 0.09897874 0.45640486 0.4070287 0.14667423 -0.34505054 -0.093615614 0.2271449 -0.16856338 0.011753573 -0.15755363 0.6963181 -0.3608982 0.056241155 0.072625875 -0.3186066 0.5814115 -0.7425308 0.44821382 0.21433975 -0.38516393 0.40751818 0.16066462 0.11550947 -0.4023821 0.26654506 -0.35433185 -0.5228815 0.12702456 0.23038274
there 0.25299108 0.6680219 -0.08938496 0.6687531 0.62038684 0.46316597 -0.57503 -0.02370018 -0.021970665 0.059257478 0.31315133 -0.11828133 -0.2067772 0.31503275 0.121440284 0.09719053 0.29891768 -0.22498615 0.037524197 -0.075512744 -0.37224206 0.61954 0.17981546 0.3478425 0.21814379 -0.99237204 -0.24331577 -0.47003156 -0.5548554 -0.8332344 0.33041573 -0.41056648
no -0.13312264 0.5940462 -0.118939705 0.30000994 0.52222466 0.5134614 -0.20777452 -0.23217398 -0.004721465 0.105302446 0.2630193 -0.31428522 -0.2220599 0.17259598 -0.20273907 0.115530185 0.3050719 -0.105038 0.16031915 -0.15418842 0.012695307 0.5465635 0.022716897 0.1805517 0.38093483 -0.2887985 -0.07376632 -0.28380695 -0.5521199 -0.36430845 0.29219592 -0.18429786
federal -0.16907024 0.3438231 -0.34830773 -0.18231215 0.5050305 0.6221674 -0.14222275 -0.514582 0.043883905 0.10895667 -0.2588519 -0.23663226 -0.2682358 0.1587807 -0.61721206 0.10677304 0.6092803 -0.08641774 0.46033463 -0.53120315 0.6084193 0.089813285 -0.610436 0.0143478755 0.1635174 0.10364834 -0.02879205 0.081730925 -0.52436686 -0.19041055 0.7365617 -0.21635123
voted -0.6506766 0.79007673 -0.5382457 -0.32879356 0.042677652 0.66831475 -0.1172761 -0.18113175 0.26858562 0.32981256 -0.27363732 -0.083768755 -0.08874469 0.47284266 0.07528354 0.20063864 -0.06164689 0.077883266 -0.10317278 -0.40853864 0.28698558 0.27261555 -0.05037894 0.63945967 0.1132093 -0.110000655 -0.31547424 0.1201223 -0.7323645 0.12640728 0.45762372 0.47311515
barack -0.5011927 0.6163676 -1.1975467 0.47034734 0.893565 0.8658509 0.425527 -0.12438485 0.0012833913 0.17270385 -0.04385824 0.20775662 -0.260449 1.0459313 -0.21532032 0.42527187 -0.44195327 -0.6048321 0.5862313 -0.6291614 0.52817386 0.7343646 -0.26114035 0.60632807 0.44655374 -0.16653617 -0.16243328 0.3233243 -0.821083 -0.7156439 -0.23915346 0.65254796
since -0.46083993 0.67067116 -0.4939121 0.7750566 0.6539152 0.5615394 0.49603516 -0.17955539 -0.22974506 0.16902591 0.20182927 -0.21644782 -0.188601 0.67851174 -0.15800099 0.23105757 0.0005752948 -0.15705344 0.33452824 -0.43002096 -0.11236414 0.21798544 0.06964207 -0.07245321 0.64719915 -0.20850678 -0.34677827 0.09397155 -0.042251732 -0.56139714 -0.17658557 -0.12765487
up -0.22397819 0.47504294 -0.09092938 0.10553858 0.3444962 0.70292145 -0.09841776 -0.25516444 0.1013489 0.20762026 0.013555127 -0.4433099 -0.15907384 0.2811709 -0.020601358 0.0692963 0.43706173 -0.032533463 0.34544355 -0.07328544 0.087929875 0.23014826 0.19509472 0.16224697 0.06063201 -0.25643134 -0.24439645 0.11734598 -0.55030423 -0.36364654 0.32986563 -0.20425616
government -0.04666245 0.48391464 -0.35252666 -0.12141862 0.5050133 0.6811232 -0.2927133 -0.49608788 0.026287587 0.20358597 -0.16336289 -0.13744968 -0.09705585 0.012013398 -0.564591 0.07996074 0.50370854 -0.20626543 0.35321406 -0.54135776 0.33534324 0.08188148 -0.48569012 0.1668606 0.011573174 -0.0018523234 -0.05966041 -0.07342157 -0.46206155 -0.33790836 0.534076 -0.19574243
if -0.46481234 0.6916805 -0.076478146 0.44942784 0.33567187 0.29678413 -0.67596537 -0.6310005 -0.010028408 0.13013439 0.46060687 -0.14232253 0.07174099 0.5307574 -0.29805037 -0.2083894 0.14188845 -0.24599165 0.2603509 -0.099049315 0.29216626 0.6741444 0.22518063 0.82839787 -0.042354546 -0.19367838 -0.014647499 -0.2433322 -0.64744556 -0.21261655 0.15863092 -0.5423674
had -0.32271078 0.7107871 -0.22406216 0.5479452 0.4374923 0.539372 -0.02741481 -0.35955992 -0.04172375 0.21090806 0.31493977 -0.2299908 -0.1287396 0.6500427 -0.20163529 0.08147895 0.030390235 -0.14267188 0.11287208 -0.22106324 -0.023948615 0.33926377 0.2791358 0.19823556 0.28319067 -0.16115971 -0.11353595 -0.063667946 -0.4508278 -0.33104315 -0.1822208 -0.32234827
budget -0.6113118 0.4176202 -0.43697274 -0.070233375 0.31144828 0.647847 0.20919621 -0.3859686 -0.0447785 0.20377679 -0.20431265 -0.018090393 -0.35985747 0.37983912 -0.094887525 0.23252982 0.31979504 0.0018317075 0.110307455 -0.6888999 0.24281354 -0.04373033 -0.30276197 0.06252001 0.3952838 -0.16271845 -0.29036376 0.19011737 -0.3110435 -0.29771537 0.46698403 0.031779
1 -0.15463495 0.14754367 0.10349256 -0.036428507 0.75540286 1.1224426 0.31138438 -0.17538613 0.11427895 0.24115022 -0.21769506 -0.62141633 -0.43160093 0.48045176 0.04421523 0.38513097 0.90251756 0.38005033 -0.060691502 -0.31405833 0.011007219 -0.17831044 0.25513682 -0.4532598 0.1954004 -0.628658 -0.40389025 -0.04203464 -0.52980155 -0.55759543 0.78231466 -0.35258523
now 0.080835074 0.4860763 -0.14363693 0.44540536 0.7660879 0.56199634 -0.27073985 -0.4282724 0.111702375 0.13925534 0.32914662 -0.3687654 -0.14209333 0.2833976 -0.22018085 0.14578894 0.23287402 -0.15700044 0.29560715 -0.15354837 -0.09101976 0.45599532 0.024289224 0.20164862 0.09962105 -0.4148259 0.062358133 -0.27970853 -0.39843956 -0.4485312 0.30525568 -0.359976
country -0.038331784 0.96379966 -0.020952886 0.40913484 1.1073676 0.5832965 -0.17435984 -0.8015538 -0.029359443 0.07851885 0.32981896 -0.013047195 -0.4956954 0.116965525 -0.642609 0.61558527 0.33742848 -0.16352366 0.23977573 -0.24447414 -0.20407823 0.38520887 -0.18451513 -0.034404725 0.5869331 -0.3043191 0.36044627 -0.23084642 0.12586375 -0.36442506 0.3883679 -0.71421057
any -0.06325328 0.57626915 -0.24872535 0.2348875 1.0459973 0.49498358 -0.14536849 -0.5636257 0.3466859 0.263026 0.40400195 -0.6732493 -0.40278256 0.13935043 -0.41925022 0.501473 0.06655532 -0.055926085 0.6318556 -0.073877364 0.16941676 0.62455285 -0.3826246 -0.10660979 0.33949444 -0.42504445 0.04305074 -0.4513114 0.1560213 -0.3699705 0.17307995 -0.2301437
last -0.364306 0.5204125 -0.17061342 0.66039145 0.57157105 0.9490352 0.65902287 -0.44850513 0.15309173 0.109494485 0.28708076 -0.31341523 -0.548772 0.7607585 0.07035955 0.6040809 0.2996238 0.12401943 -0.031028867 -0.6173212 -0.30853552 0.12197306 0.14747474 -0.61811286 0.8938206 -0.3687887 -0.051897887 0.2234874 0.02800772 -0.9193361 0.34148496 -0.5354684
law -0.04869861 0.52417547 -0.5298421 0.01923917 0.37379825 0.47203967 -0.53502715 -0.65713114 -0.024266927 0.21538067 -0.276496 0.0391211 -0.011295021 0.17120266 -0.7218178 -0.11420488 0.22931555 -0.47704273 0.46291184 -0.74974054 0.485412 0.123031594 -0.6386711 0.5435362 0.08628426 0.27468264 -0.04671044 -0.059220355 -0.6326413 -0.4322755 0.5179276 -0.25808778
united -0.13692228 1.4118325 -0.40534458 0.008537382 1.0239172 0.80404216 0.0038605519 -0.5356325 -0.33652407 -0.23509902 0.33583334 0.23124291 -0.6884355 -0.05825244 -1.0304513 0.03274985 0.46815735 -0.4223314 0.26234603 -0.2338218 -0.39845678 0.7777575 0.117899664 -0.2010824 0.7565106 -0.701434 0.2507767 -0.5875923 0.0006923872 -0.49708614 -0.038051642 0.1451905
pay -0.1736235 0.3973825 0.19589354 -0.18669751 0.27791592 0.8555497 -0.2754318 -0.52867967 0.24541576 0.22353573 -0.01108502 -0.626154 -0.30491036 0.21607353 -0.1795443 0.11150221 0.6965516 0.16004874 0.5101321 -0.08726746 0.28375745 0.11719463 0.1351671 0.19720495 -0.26402137 0.088588946 -0.042105902 0.2732332 -0.7281591 -0.3787879 0.73322785 -0.5584256
its -0.17302772 0.627899 -0.2771664 0.29080802 0.43463048 0.5235647 0.03164588 -0.2868551 0.055462416 0.11943187 0.074130945 -0.4582457 -0.20255506 0.37767962 -0.2004378 0.09999464 0.29793727 -0.1227498 0.2838344 -0.16839004 -0.07868396 0.30239525 0.21266294 0.04102018 0.37743092 -0.29305995 -0.14524107 -0.14100778 -0.18936016 -0.41505182 0.21002325 -0.26707655
plan -0.3896833 0.5222698 -0.5942238 -0.36117834 0.12813276 0.5466754 -0.3972746 -0.42018875 0.101788156 0.21820377 -0.37898982 0.07254667 -0.108780235 0.4036525 -0.21276769 -0.08159528 0.29071677 -0.3194582 0.45211267 -0.6295947 0.65198475 0.16741382 -0.6040271 0.82727087 -0.13067815 0.1961298 -0.19210592 0.29084453 -0.8411605 -0.35026193 0.57607913 -0.0038736684
because -0.267768 0.41505778 -0.21649697 0.38644546 0.52248555 0.364321 -0.5579765 -0.49208152 0.11858506 0.14394182 0.05650862 -0.04891854 0.012878065 0.34855565 -0.47891858 -0.14863099 0.16797869 -0.19415979 0.21640827 -0.40234017 0.15220575 0.24523866 -0.16652875 0.5327614 0.25450653 -0.064209625 -0.032277294 -0.17748521 -0.43070102 -0.38012695 0.3997136 -0.23632503
time -0.3318442 0.703712 -0.23559248 0.6179226 0.795539 0.80399096 0.1987421 -0.66945577 0.10461388 0.19580388 0.13446894 -0.070796326 -0.38377228 0.47370988 -0.31545272 0.4511396 0.17482434 -0.219529 0.15095031 -0.3876134 -0.15127136 0.2661376 -0.08258998 -0.21689232 0.4671513 -0.21268761 0.2756531 -0.06667665 0.102131866 -0.41886264 0.1778937 -0.41556674
rate -0.35518852 0.9396859 -0.282416 0.13204245 0.9209361 0.6208621 0.43709624 -0.46394387 -0.0170023 0.24227892 0.19005767 -0.48670796 -0.41407427 0.15722242 -0.33448792 0.52114207 0.6261205 -0.009586479 0.28850907 -0.17050485 -0.28896886 0.11037136 -0.06205058 -0.4269914 0.54666334 -0.4773621 0.02760941 -0.31269935 0.2555995 -0.3073487 0.3720475 0.07082359
other -0.06429034 0.9300902 -0.24358052 0.20728178 0.9628653 0.53150254 -0.03121722 -0.5427963 0.1208941 0.077283576 0.31902495 -0.4093738 -0.46531823 0.23108415 -0.517692 0.33767214 0.22339295 -0.012868946 0.50485176 -0.11630633 -0.12740453 0.36942953 -0.26431614 -0.3148498 0.26214942 -0.5838345 0.1790583 -0.3732825 0.12741548 -0.41997907 0.19403753 -0.35972914
money -0.11349742 0.4444616 -0.05884926 0.1614204 0.5166475 0.58237183 -0.34128687 -0.32099462 0.087269336 0.28611904 0.11575801 -0.41110367 -0.14536582 0.44110808 -0.16026144 0.017634436 0.3243352 0.049629197 0.21742807 -0.19426367 0.21704507 0.17196582 -0.018890422 0.3062143 -0.02839388 -0.19023515 -0.16741624 0.016769167 -0.47105333 -0.3134808 0.41346338 -0.26217765
wisconsin -0.3500211 0.51802593 -0.69288933 0.04035308 0.3464613 0.31498098 0.11915198 -0.34019008 -0.04012566 0.26571637 -0.01259199 -0.27156922 -0.1274265 0.44636017 -0.2860746 -0.009668323 0.35496226 -0.08813742 -0.053932976 -0.4403411 0.07933127 0.015281447 -0.04796666 0.15336704 0.5187193 -0.36706978 -0.42095846 -0.15035881 -0.14296055 -0.22057469 0.4382012 0.29600638
clinton -0.3182777 0.29662365 -1.0680307 0.17524643 0.593828 0.5305581 -0.1175555 -0.21863496 0.46076554 0.20758705 -0.24629718 0.26825452 0.14067644 1.0388043 -0.15006645 -0.39886406 -0.09466189 -0.2943877 -0.31919742 -0.7579185 0.50437623 0.7870058 -0.43595546 0.9658946 0.33313674 -0.6178037 -0.34152585 0.14445195 -0.57483274 -0.06701967 -0.15343563 0.022353502
first -0.5699053 0.6090663 -0.35296658 0.468061 0.6087301 0.62451524 0.001502428 -0.5323057 0.001546935 -0.001251033 0.18411618 0.1846877 -0.33887875 0.3150434 -0.13072383 0.39163902 -0.04151076 -0.22206214 0.11051925 -0.5466126 -0.046183877 0.39591676 -0.38089433 0.18438496 0.7092926 -0.2393256 0.10349206 0.114140935 -0.05362776 -0.66854626 0.23691778 -0.20825462
cut -0.43411908 0.31509924 -0.06463097 -0.2258448 0.22702473 0.63751596 0.2445031 -0.3784475 -0.12562388 0.038460884 -0.1704187 -0.42816907 -0.36690706 0.5549904 0.10247238 0.036990993 0.59539 0.0496589 0.43235776 -0.26106638 0.22719902 0.22053598 0.16607763 0.48550966 0.10239721 0.04675084 -0.34649584 0.3751417 -0.7603554 -0.4116112 0.34293574 -0.09612228
but -0.19395155 0.59217626 -0.1283377 0.30009708 0.3414198 0.5117576 -0.42692474 -0.52752066 0.09909612 0.04279823 0.21415773 -0.13225953 -0.18803908 0.3851154 -0.267468 -0.030759051 0.13794114 -0.14913675 0.1717499 -0.23554644 0.07741921 0.44788164 0.06887815 0.37935323 0.22580701 -0.2062042 0.015554774 -0.17084704 -0.43403637 -0.34980103 0.30532146 -0.35279503
into -0.35797757 0.4693342 -0.1393615 0.19007346 0.48603627 0.5290028 -0.21030307 -0.41718218 0.019670356 0.14225964 0.033588164 -0.2661305 -0.13739213 0.2711242 -0.30691195 -0.020929046 0.3065297 -0.09952851 0.21612392 -0.3108193 0.13801521 0.27303255 -0.11596481 0.33216703 0.1603412 -0.10711934 -0.16228844 0.07448819 -0.3305434 -0.20029736 0.30350223 -0.42698023
get -0.15368246 0.5938471 0.14060165 0.07494348 0.20781344 0.5500812 -0.6236176 -0.55850625 0.23286326 0.15812865 0.119475044 -0.46100262 -0.026521396 0.21774895 -0.29641777 -0.15243489 0.45375368 -0.12754124 0.23526923 -0.00632912 0.17598334 0.4142869 0.21576084 0.5074469 -0.087618984 -0.14549135 -0.008651222 -0.12155989 -0.6907901 -0.22584523 0.49635866 -0.6223394
americans 0.24763834 0.34595478 0.25461552 0.18587577 0.7711689 0.80659205 -0.24606062 -0.27478197 0.30139264 0.29336601 0.077141106 -0.74882996 -0.11659264 0.31680447 -0.21135019 0.02627873 0.6783822 0.026357496 0.3355261 -0.062103942 0.0589301 0.12655878 0.21719581 -0.046028372 -0.054272946 -0.4355384 -0.2296613 -0.14324182 -0.47091886 -0.41796884 0.48782104 -0.41360608
american -0.13551116 0.6414495 -0.057869714 0.19862328 0.6747004 0.7749169 -0.07589506 -0.28948003 0.18456689 0.15380397 0.110509135 -0.2915236 -0.19835053 0.32336667 -0.2671365 0.18413985 0.48079297 -0.048373554 0.24415465 -0.15172887 -0.056040306 0.15347898 -0.08371435 -0.20524676 0.18513076 -0.33230695 -0.10579264 -0.19051023 -0.18332894 -0.20767587 0.33279863 -0.2381233
republican -0.62481 0.9404181 -0.6932035 0.10215402 0.16475916 0.4810787 -0.037191037 -0.35907957 0.07565643 0.31354538 0.0023553434 0.09186207 -0.20961158 0.4547049 -0.2935918 0.13555068 0.06571309 -0.07085509 -0.21559532 -0.6179374 0.011226715 0.1743243 -0.37715736 0.117021464 0.5091096 -0.44417998 -0.2222992 -0.2793498 -0.08485781 0.052022953 0.36927348 0.37076122
against -0.57063943 0.6962977 -0.49043456 -0.012676802 0.09216107 0.5600752 -0.2398337 -0.29717204 0.06597555 0.0818732 -0.10595133 0.025431305 0.0135488035 0.45300376 -0.06374862 -0.09712029 0.08217253 -0.1019786 0.04922686 -0.51890266 0.04426271 0.37818924 -0.44474134 0.66080815 0.2596718 -0.21661587 -0.27161694 -0.029490089 -0.40251562 -0.05311241 0.26431644 -0.033163268
even -0.29114327 0.704167 -0.17492193 0.11827473 0.23216648 0.43841895 -0.47450706 -0.42935866 0.1296268 0.10243398 0.19383933 -0.15626518 -0.041070648 0.40127346 -0.14003922 -0.13289993 0.16306767 -0.1441203 0.1509039 -0.1708476 0.17891522 0.5359863 0.02591256 0.69908166 0.10581556 -0.23773414 -0.12211167 -0.087455906 -0.56107396 -0.18826102 0.16278276 -0.2022474
public -0.14735836 0.46639797 -0.13160065 -0.009172983 0.46795076 0.45858037 -0.09808217 -0.5509734 0.14545292 0.10956923 -0.1479743 -0.44234306 -0.18474384 0.14306617 -0.40567315 0.062924124 0.57853764 0.016085701 0.15213145 -0.36018434 0.04226333 0.09712326 -0.144428 0.19114268 0.24642707 -0.17359662 -0.19813046 -0.07187874 -0.26256245 -0.16204956 0.4906979 -0.3956625
senate -0.7806022 1.3161677 -0.921582 -0.028150596 0.17546427 0.74344945 -0.17693052 -0.4119934 0.21200071 0.33785766 0.16751002 0.16315705 -0.24018462 0.47506273 -0.5803535 0.22513264 0.067887485 -0.06762179 -0.52468723 -0.74310756 0.017220445 0.25812048 -0.4864539 -0.12766133 0.61737806 -0.5033604 -0.14164637 -0.48348564 0.049886156 0.36518604 0.3099745 0.6540507
just -0.24208479 0.50477856 0.0037782125 0.43308648 0.34938136 0.61325216 -0.08821647 -0.39944318 0.12686875 0.108407244 0.2613607 -0.35903722 -0.17593612 0.4792154 -0.011389887 0.109499305 0.30053952 -0.066418685 0.092666104 -0.21625508 -0.08732404 0.356684 0.26055554 0.16562025 0.28036457 -0.2936469 -0.076586194 -0.0273046 -0.3711617 -0.513123 0.19481201 -0.5267689
's -0.63339007 0.5358013 -0.6302909 0.20466661 0.40367004 0.48213917 -0.13851714 -0.35761994 -0.03296855 0.11878639 -0.07816254 0.1237802 -0.14362247 0.60761935 -0.2499444 0.058477785 -0.1355036 -0.26042607 0.4194852 -0.5504265 0.31785688 0.48520392 -0.2770597 0.6730638 0.2688349 0.13037914 -0.145338 0.21864174 -0.616601 -0.30685693 0.09634268 0.09626661
florida -0.11927817 0.6306521 -0.34584197 0.2349055 0.51834375 0.52327025 -0.021252953 -0.3863448 0.13300051 0.21375123 0.14581956 -0.21046951 -0.24926957 0.32939634 -0.2708782 0.20038112 0.26789317 -0.043437302 -0.035339803 -0.3708359 -0.03667696 0.17797361 -0.040302426 0.0072718034 0.44326288 -0.40041658 -0.03284999 -0.27525765 -0.13948962 -0.34110346 0.3718151 -0.09818103
10 -0.093310125 0.34507138 0.0831499 0.35135248 0.5923575 1.0143377 0.45601708 -0.43012497 0.31835577 0.12788446 -0.039125837 -0.6032106 -0.36496922 0.58243626 -0.1015213 0.38191095 0.65498334 0.06995114 0.1059059 -0.48195904 -0.13619155 0.060399618 0.22057322 -0.48059335 0.35087487 -0.37255052 -0.09732971 0.101185665 -0.14896932 -0.72235376 0.38831592 -0.45888904
spending -0.20540361 0.35423663 -0.2333089 -0.08979268 0.515009 0.6396699 0.094887756 -0.2896904 0.11860097 0.22855216 -0.17932357 -0.459698 -0.35602728 0.3749085 -0.1199797 0.19489358 0.54708 0.16441923 0.3086508 -0.47147155 0.22833565 -0.054000143 -0.16166951 -0.034994435 0.1604681 -0.1784273 -0.21694629 0.120946236 -0.3236807 -0.4107505 0.5817379 -0.13554624
most -0.22882117 0.73830444 -0.2949613 0.27449372 0.6609054 0.5062994 -0.11531709 -0.5123869 -0.06776001 0.036471322 0.20082612 -0.072983585 -0.208417 0.07712641 -0.5370996 0.18140581 0.33313847 -0.23130733 0.1786235 -0.31881434 -0.09981414 0.29585597 -0.24744403 0.011987826 0.46092963 -0.37961358 0.039016332 -0.3242043 -0.049111437 -0.30333793 0.31834516 -0.17767256
do -0.16175357 0.6990329 0.0472835 0.26878116 0.393632 0.45671365 -0.74488014 -0.65059143 0.13433488 0.021698684 0.42974648 -0.2642766 -0.09048832 0.33178157 -0.3610483 -0.094072424 0.15407073 -0.2480053 0.42281562 0.055245273 0.2372536 0.7697397 0.2690695 0.72808886 -0.032494463 -0.2249623 0.112944335 -0.18663257 -0.7794025 -0.38283873 0.13454242 -0.63658243
school -0.27546 0.60733974 -0.15553379 0.11432204 0.36538333 0.40571442 -0.019438703 -0.4512094 0.24479204 0.16039263 -0.07976692 -0.49986342 -0.17380926 0.13140152 -0.28429845 0.12425078 0.5418167 -0.054369297 0.12246499 -0.34639084 -0.15710574 0.12569022 -0.038486116 0.154697 0.32292753 -0.2932347 -0.123315945 -0.13881242 -0.13115244 -0.20770368 0.44589934 -0.35087365
two -0.22294334 0.4962581 -0.07925079 0.54205704 0.42566848 0.83707947 0.44411078 -0.38492566 0.28911412 0.15191858 0.09312309 -0.48833558 -0.32072622 0.6767389 0.02371474 0.34306306 0.35465702 -0.015214123 0.022832552 -0.490435 -0.15277669 0.21930203 0.24612854 -0.320886 0.46143353 -0.30182284 -0.036133423 0.14431174 -0.12178307 -0.73945343 0.06686577 -0.34623292
obamacare -0.15732303 0.41237366 -0.28717142 -0.036607977 0.30937693 0.57079625 -0.31071988 -0.37404576 0.13315232 0.1598406 -0.12512936 -0.15537079 -0.12759522 0.30624226 -0.20231557 -0.07642072 0.2471981 -0.25858104 0.33031946 -0.41523892 0.35605612 0.23637892 -0.17807941 0.56631887 0.020724228 -0.042489734 -0.102864064 0.09752987 -0.67128617 -0.42152834 0.45946062 -0.2070116
office -0.5080794 0.64103293 -0.72032744 0.68499947 0.61845076 0.5573795 0.3707122 -0.31620586 -0.092316404 0.16539608 0.19834688 0.118211776 -0.362736 0.85842746 -0.068357676 0.16621743 -0.20235357 -0.2850028 0.11433358 -0.40689477 0.10143673 0.41989142 0.2904812 0.34002736 0.58491516 -0.2186245 -0.15179916 0.21976511 -0.28787595 -0.7819122 -0.14952576 0.03126094
can -0.31939757 0.6453765 0.14539292 0.20643082 0.28821754 0.36381063 -0.7805026 -0.64957684 0.12845598 0.033873197 0.2527199 -0.42673722 0.025148166 0.33656695 -0.37877262 -0.3068437 0.37554568 -0.06431505 0.28277642 -0.05434059 0.34680897 0.5324559 0.1145609 0.814781 -0.02848323 -0.122079425 0.0005229747 -0.12534451 -0.65553373 -0.12152067 0.2922834 -0.6507425
insurance 0.073570736 0.48244518 -0.41827118 -0.34400418 0.53887135 0.6490373 -0.7351588 -0.6903495 0.567366 0.19200896 -0.032218903 -0.24379845 -0.13367371 0.17706625 -0.7484377 0.009517786 0.4607298 -0.22334176 0.35894075 -0.48764887 0.5865099 0.27314976 -0.39654532 0.5853547 -0.3667469 0.24121322 0.13820197 0.19075282 -0.55144095 -0.11853692 0.7846467 -0.52161807
hillary -0.7853354 0.93142575 -1.0896493 0.27333808 0.3768409 0.55903476 -0.10566252 -0.27257636 -0.21312845 -0.12717015 -0.43170515 0.40255153 0.20296837 0.7513246 -0.11122858 -0.22126591 -0.23847786 -0.2677274 -0.010356238 -0.2957674 -0.009372774 0.5344047 -0.42954695 0.984358 0.13201143 -0.7117684 -0.72671187 -0.3876938 -0.9290029 -0.26356626 -0.083893664 0.18710835
average -0.1928521 0.5632881 -0.03495365 -0.015371879 0.54652715 0.8039453 -0.0904006 -0.45673296 0.25301632 0.19267084 0.09440432 -0.38369536 -0.362515 0.28292584 -0.17952576 0.3652457 0.54651374 0.11013684 0.24485902 -0.27400494 -0.028338052 0.019851962 -0.23137301 -0.32219118 0.292339 -0.372049 0.0061413236 -0.015696777 -0.14124069 -0.3038279 0.59830076 -0.25637153
scott -0.9041838 0.42716676 -1.2415698 -0.020881053 -0.075171515 0.06398122 0.31958225 -0.39628845 -0.40935844 0.4651082 -0.045142893 -0.46523288 0.06284091 0.97487193 -0.12459642 -0.4895982 0.3604362 -0.15944175 0.12705882 -0.5468073 0.28851482 0.23947532 0.16862522 1.0415001 0.5515784 -0.41696948 -1.0301869 0.11977258 -0.5343011 -0.20752278 0.4748673 0.74225754
debt -0.25139147 0.46486866 -0.21570764 -0.060337104 0.635932 0.85847956 0.1775664 -0.28840348 0.016670153 0.3096555 -0.051104266 -0.30071527 -0.4617238 0.3601208 -0.16886677 0.3838243 0.53160906 0.1530277 0.26638064 -0.38433382 0.16873448 0.05249138 -0.039446548 -0.264545 0.1657606 -0.19674657 -0.14426343 0.11320675 -0.285633 -0.3629436 0.53557575 -0.09001716
house -0.49212107 0.87937206 -0.57432485 -0.011392424 0.1999042 0.5677312 -0.28590062 -0.4279044 0.26008862 0.28502405 0.11101348 0.17214422 -0.17538632 0.5130138 -0.4724452 0.19891664 0.19990069 -0.07506093 -0.24515688 -0.54434127 0.259974 0.080161445 -0.37949842 0.08615769 0.35532334 -0.336421 -0.09337292 -0.18939623 -0.13149238 0.1472217 0.49550954 0.27828002
2 -0.088014424 0.0946375 0.15261257 0.03768057 0.74930805 1.0775307 0.32663336 -0.18676582 0.1952243 0.3749868 -0.19101109 -0.8605134 -0.34781128 0.5407621 0.085160226 0.18783699 0.86985934 0.34815162 0.10175512 -0.28351852 0.0747914 -0.09455703 0.3561126 -0.26056552 0.1370086 -0.4471955 -0.4485701 0.059795525 -0.6084575 -0.5921391 0.64967495 -0.39605296
security -0.22548056 0.9347737 -0.12027985 -0.6739665 0.34074485 0.43973193 -0.23704198 -0.6491864 0.37167463 -0.18968965 -0.014253443 0.06900156 -0.28190756 0.23549348 -0.21760692 -0.003617433 0.5725368 -0.1834887 0.13876553 -0.3092457 0.20912597 0.46582398 -0.045961462 0.5921373 -0.08753208 -0.11680318 -0.6633552 0.10591067 -0.28821278 0.011071748 0.32544684 -0.43784901
america 0.00081713096 0.66246355 -0.23231961 0.27895844 0.7931071 0.65302783 0.011878176 -0.38895807 0.05273244 0.13564548 0.27253285 -0.31306648 -0.3670224 0.110015705 -0.435859 0.19401698 0.31998762 -0.13502142 0.16953553 -0.16800807 -0.1613005 0.47058022 0.14058708 -0.035771813 0.4694318 -0.4055062 0.046454668 -0.37811288 -0.10323128 -0.42779967 0.25699043 -0.25981095
three -0.15262002 0.6189702 -0.033715926 0.4811487 0.47289994 0.8061704 0.33138078 -0.4025344 0.21916027 0.080482796 0.21373656 -0.49144053 -0.3049514 0.5725482 -0.07146241 0.3664073 0.4349166 -0.020077033 0.09560922 -0.37348568 -0.1977326 0.24096051 0.32430977 -0.3230519 0.40076026 -0.38113508 -0.033417046 0.014837294 -0.07128395 -0.6217956 0.14127803 -0.3910223
income -0.15335535 0.502857 0.015691238 -0.20282713 0.6382317 0.79630935 0.10494162 -0.48354998 0.10901218 0.030060312 -0.10347435 -0.5589828 -0.41886273 0.17611699 -0.26320875 0.2771187 0.8823597 0.15604118 0.54093754 -0.2166265 0.04363145 0.049965546 -0.21145518 -0.04434956 0.17195098 -0.05163797 -0.035451416 0.08539232 -0.24024452 -0.33274427 0.57088476 -0.32839587
medicare -0.23609917 0.40144482 -0.12629005 -0.3345264 0.16193327 0.6518968 -0.311585 -0.34464082 0.29689077 0.072545655 -0.32507673 -0.38153538 -0.15750687 0.3566745 -0.0029478252 0.006687743 0.44384095 0.02350279 0.17257787 -0.40195918 0.3461738 0.15084873 -0.111226894 0.5797891 -0.0016240987 -0.08723084 -0.24712226 0.21580419 -0.6442833 -0.24210556 0.61384225 -0.19855213
city -0.21753116 0.6084361 -0.26035532 0.20232587 0.5853188 0.5747228 -0.09842376 -0.5168398 0.06877617 0.13809316 0.12144483 -0.1108009 -0.24274611 0.15805484 -0.43862757 0.21992622 0.37991506 -0.08064894 0.0127268275 -0.38680616 -0.031172546 0.20832856 -0.10847383 -0.0033690564 0.4211675 -0.3479859 -0.002282316 -0.27552393 -0.056984406 -0.2543489 0.4003756 -0.21445888
gov -0.81984335 0.5188078 -1.1725558 -0.0429205 0.044249523 0.15470755 0.27735156 -0.3322254 -0.16402404 0.34198564 -0.22423153 -0.35447797 0.047030084 0.98093975 -0.12287687 -0.4443561 0.21097377 -0.28999376 0.09705406 -0.6312348 0.2881687 0.07943219 0.045632355 0.9010725 0.4726352 -0.237616 -0.87624 -0.001030643 -0.40573972 -0.21540312 0.4121069 0.70094925
national -0.27061838 0.6275836 -0.35834625 -0.18077537 0.5314931 0.71288186 -0.029167242 -0.34361643 0.085795105 0.07266723 -0.105027825 -0.27548346 -0.2320122 0.31046414 -0.24254072 0.37068048 0.38971642 0.050582808 0.2809987 -0.39833933 0.18628372 0.031655174 -0.41913614 -0.16416675 0.2522781 -0.28623882 -0.071900986 0.033332463 -0.14153543 -0.19758321 0.4870706 -0.0057563074
governor -0.53490794 0.68965536 -0.68876684 0.40230384 0.32768428 0.40067968 -0.06963681 -0.36966187 -0.12155623 0.21528837 0.1771208 0.10394947 -0.20328458 0.6218778 0.020741368 0.039366767 -0.13106655 -0.23687977 -0.13590245 -0.39098987 -0.06313093 0.40164953 0.012192359 0.5108798 0.5929829 -0.34334713 -0.23679416 -0.0772469 -0.22280313 -0.53433126 0.11667121 0.13267432
congress -0.28969342 0.77920866 -0.40505978 0.17385246 0.35076016 0.56783915 -0.19444199 -0.3658809 0.16196746 0.18933347 0.11951681 0.01056052 -0.22026129 0.34214988 -0.27031314 0.1793477 0.1145088 -0.15794715 -0.046849243 -0.4201901 0.11590078 0.29476526 -0.14371915 0.20869218 0.36257267 -0.32721853 -0.02592914 -0.21120377 -0.26193327 -0.22248834 0.30047175 0.087128244
down -0.25467697 0.48207113 -0.2211457 0.14917725 0.4298716 0.58053094 -0.05799147 -0.3572431 0.053165063 0.16160889 -0.010887641 -0.31948277 -0.20097885 0.2742222 -0.1640769 0.06101287 0.29993102 -0.13487117 0.25589275 -0.24200264 0.07022619 0.29106015 0.014955653 0.21200293 0.18082826 -0.21138333 -0.15558046 -0.021461869 -0.42984357 -0.31660727 0.29609218 -0.16499324
did -0.5102695 0.7108118 -0.28162432 0.50400686 0.3504394 0.43339646 -0.38464758 -0.47803628 0.020064918 0.026940696 0.42788315 0.014418072 -0.10330895 0.74203426 -0.16440058 0.058048643 -0.23725253 -0.20726816 0.26858917 -0.16584523 0.14440171 0.6760251 0.10569955 0.6542536 0.287986 -0.20858419 0.061026186 -0.06222448 -0.5868955 -0.48809034 -0.102249935 -0.33590898
women -0.020243915 0.5737678 -0.081679635 0.12145671 0.47705644 0.5878793 -0.30340376 -0.3609807 0.25429037 0.20297037 0.07146734 -0.3721919 -0.13544266 0.2500036 -0.2640177 0.042818498 0.3562873 -0.096449055 0.13786869 -0.18773757 0.039740488 0.29626942 0.036439694 0.2542275 0.118623175 -0.33045557 -0.089152224 -0.22900914 -0.3605525 -0.18226607 0.3973246 -0.23657297
times -0.2409161 0.45879048 -0.18577506 0.31148997 0.529089 0.7736548 0.3311596 -0.24382104 0.11641432 0.25842172 0.21864755 -0.54522425 -0.34715587 0.6288361 0.21108493 0.21880206 0.34509107 0.13715932 0.234923 -0.19996604 -0.13932617 0.22075787 0.25449288 -0.06744867 0.23045592 -0.3422602 -0.1843386 0.057798885 -0.20871258 -0.6241579 0.1595152 -0.35888433
four -0.18907808 0.5129138 0.048361428 0.54114395 0.422879 0.8232479 0.28693277 -0.4460585 0.30277354 0.075174145 0.14738575 -0.5311989 -0.32454786 0.6295646 0.011493022 0.39343083 0.4256867 0.030279988 0.033099685 -0.41133454 -0.2518892 0.23505892 0.32142916 -0.2709655 0.45312047 -0.4228807 -0.056829017 0.06635262 -0.10702505 -0.71555024 0.25644422 -0.47544846
world -0.18583432 0.7798258 -0.23452929 0.34989095 0.79279613 0.62442845 0.032626927 -0.56435424 0.025637537 0.09439107 0.2706349 -0.20017818 -0.39370644 0.106286146 -0.50128275 0.38661712 0.3947828 -0.10892812 0.14915623 -0.2936342 -0.13552472 0.32027173 -0.09355022 -0.24675906 0.5450341 -0.30604827 0.18709065 -0.26820767 0.09112219 -0.33166084 0.33685565 -0.3625658
never -0.4012878 0.7575552 -0.43386987 0.4918135 0.38313553 0.49312988 -0.09096387 -0.08343791 -0.117261924 0.17784223 0.24982546 -0.07040586 -0.1242275 0.59977335 0.084932126 0.036834396 0.0026263387 -0.33570147 0.11017484 -0.27771276 0.0392907 0.5567532 0.15883908 0.60025144 0.26185262 -0.2979949 -0.22765946 0.04116811 -0.7397792 -0.45186627 -0.20994364 -0.032245193
right -0.08290053 0.7405957 -0.13766225 0.19798554 0.4247273 0.48130003 -0.36796787 -0.5127123 0.001493601 0.09632174 0.29945704 -0.16409263 -0.20371044 0.2511391 -0.42477107 0.006820723 0.20894492 -0.3217233 0.28927884 -0.14057994 0.08551984 0.53961843 0.11881953 0.2534923 0.17388996 -0.32963413 0.022378761 -0.2581542 -0.42691153 -0.2984955 0.20417859 -0.28060862
' -0.560426 0.752183 -0.4215594 0.21344677 0.30599964 0.3193455 -0.61876464 -0.5666328 0.09252692 -0.0075361333 0.07591593 0.095957786 -0.17584184 0.3484078 -0.32895836 0.06917666 -0.08255374 -0.2611789 0.18619442 -0.3883419 0.31478217 0.58717006 -0.4321547 0.75097567 0.36515 -0.26357836 0.019165386 -0.20562631 -0.4757452 -0.11211187 0.18894427 -0.016528912
could -0.26426116 0.47746417 0.09821412 0.22744909 0.42223382 0.44565108 -0.494183 -0.5008069 0.11616409 0.055723507 0.12864818 -0.3941278 -0.06874863 0.36956614 -0.20028242 -0.12861179 0.34350628 -0.034646638 0.3518807 -0.17389643 0.3105138 0.47115695 -0.002788897 0.6288426 -0.0030458276 -0.100965165 -0.14272563 0.09359749 -0.6782906 -0.26484022 0.207155 -0.50341564
nearly -0.1408726 0.33037275 -0.05495165 0.16699071 0.62558436 0.8517392 0.3662267 -0.2037453 0.20008044 0.30346823 -0.047822367 -0.77150947 -0.2356856 0.4469082 -0.012685985 0.1600441 0.70397466 0.23487137 0.15003112 -0.2573358 -0.112360105 -0.084793545 0.24297132 -0.30183762 0.34499437 -0.3480419 -0.35256433 0.0039076554 -0.23493992 -0.4642601 0.4387422 -0.32839423
unemployment -0.20004185 0.82988936 -0.3259048 0.27379596 0.73987055 0.63149637 0.21308388 -0.30165848 -0.04634744 0.11772912 0.09648647 -0.33086255 -0.27619994 0.2474226 -0.21721226 0.3358985 0.38753474 -0.12507278 0.21919367 -0.2837394 -0.13788447 0.1851904 0.020992287 -0.27982152 0.5332735 -0.38112 -0.07938751 -0.17397718 -0.040524226 -0.42749777 0.32442328 0.018058006
what -0.1941039 0.5323899 -0.024335193 0.45968658 0.47448337 0.48060983 -0.4471884 -0.46238923 0.06824937 0.07496714 0.37899828 -0.20535912 -0.099562675 0.4758395 -0.015365328 -0.043394584 0.15043062 -0.23992631 0.17899573 -0.07692982 0.04560799 0.5328533 0.26838416 0.6227265 0.12229745 -0.3459707 0.009175363 -0.15172303 -0.5893736 -0.5104435 0.12303527 -0.44740012
per -0.08906194 0.4236442 0.09354813 0.12814687 0.6314518 0.71286935 0.15784806 -0.4058037 0.26417238 0.24555427 0.053547703 -0.77950454 -0.38293836 0.38450953 -0.10485274 0.27496266 0.63101685 0.35685378 0.2192101 -0.26370063 -0.17123632 0.011605229 0.009580561 -0.2898979 0.35691497 -0.35626432 -0.17273849 -0.015510082 -0.079010434 -0.4094352 0.61626196 -0.49431917
cost -0.10531693 0.39002293 -0.03280538 -0.011553322 0.4239575 0.69976044 -0.20689166 -0.35268202 0.1471089 0.333975 -0.07981069 -0.438658 -0.23194483 0.28011346 -0.23671347 0.078176595 0.56241107 -0.0028513535 0.34438372 -0.32101366 0.17573977 -0.085513294 -0.14366378 0.008766413 -0.004941794 -0.16826513 -0.14560512 0.06964197 -0.5026241 -0.31634647 0.59620947 -0.24527515
dollars -0.08600866 0.26057965 0.13633437 -0.13326667 0.5344959 0.84950316 0.10995806 -0.2949244 0.2562912 0.2567731 -0.27062336 -0.6845552 -0.2921063 0.33857706 -0.10082652 0.20619409 0.8367592 0.28799203 0.09716216 -0.33767426 0.045659374 -0.0704092 0.07226437 -0.02923633 0.12039813 -0.3067692 -0.19146946 0.07938086 -0.44289556 -0.38368344 0.74123615 -0.3618102
illegal -0.21631627 0.61358684 -0.1656966 -0.031622924 0.2678033 0.5697596 -0.36608717 -0.36364052 0.2889757 0.13003328 -0.060189288 -0.3406104 -0.13060473 0.20566638 -0.2349922 -0.06270524 0.39979136 -0.040245205 0.21091384 -0.1927583 0.12798464 0.06884899 -0.18852992 0.3781153 0.104268625 -0.20567761 -0.14325783 -0.19215448 -0.502093 -0.07634166 0.46829647 -0.0962739
dont 0.0013843024 0.59945345 0.24019295 0.3181608 0.49399114 0.48201588 -0.69904625 -0.6182253 0.20739058 0.07646235 0.36457664 -0.4927965 0.01865747 0.38956308 -0.27228424 -0.2334879 0.37049976 -0.16805138 0.28910083 0.013916128 0.21338558 0.5841606 0.27139577 0.70034534 -0.053095713 -0.20436873 -0.028681234 -0.13484122 -0.7034522 -0.28090447 0.14640696 -0.68807644
so -0.1826568 0.5236405 0.019417007 0.2825252 0.3914425 0.48572314 -0.36558625 -0.44244814 0.08641041 0.102153495 0.17525087 -0.3471949 -0.11350816 0.35592365 -0.12746112 -0.042184785 0.3033966 -0.11484624 0.29640418 -0.14019783 0.029323557 0.43454847 0.15321581 0.505028 0.14916249 -0.18002515 -0.08651831 -0.030065624 -0.567934 -0.40480953 0.25176635 -0.48938867
job -0.10881135 0.56051207 -0.13621747 0.2796629 0.5181213 0.55856055 -0.048067804 -0.40044016 0.055171214 0.2279075 0.06648033 -0.43287563 -0.20582815 0.26579383 -0.23712277 0.12727606 0.41565812 -0.031972386 0.17749359 -0.2648389 -0.072574995 0.17076042 0.022673853 0.025958177 0.30929843 -0.28357804 -0.11461351 -0.085316576 -0.22192013 -0.36215833 0.3011709 -0.35606474
bush -0.65336573 0.68011093 -0.81854427 0.22499368 0.44761476 0.6919984 0.37952805 -0.11021588 -0.02119689 0.3434343 -0.026481658 0.32063478 -0.32219282 0.83032227 0.05515757 0.2082331 -0.13585678 -0.2638037 0.38657027 -0.60079086 0.24843863 0.31230077 -0.16543822 0.43180427 0.30575424 -0.1103717 -0.2518402 0.14184113 -0.3829059 -0.5632257 -0.04142544 0.294522
while -0.31226867 0.50185204 -0.35300043 0.18103366 0.47951388 0.56979614 0.059685286 -0.30705678 0.07011649 0.1241764 0.016994812 -0.21248657 -0.18161815 0.4837501 -0.1327938 0.12163394 0.2294434 -0.047766965 0.14521419 -0.34803644 -0.004350645 0.18453535 -0.050835505 0.12030075 0.32338735 -0.25255525 -0.22317229 0.015095379 -0.28345025 -0.31493905 0.19098134 -0.118040174
day -0.20884691 0.53288317 0.044974074 0.20366547 0.5111019 0.8013615 0.042381946 -0.33604965 0.18092757 0.16029686 0.042702194 -0.41189894 -0.27733013 0.4130165 -0.15637964 0.26576918 0.47511387 0.118696176 0.01057006 -0.25539976 -0.14432515 0.16121767 0.17095578 -0.05656588 0.23478197 -0.43055013 -0.0041548316 -0.0579319 -0.1496224 -0.34083027 0.42532608 -0.54341036
today 0.03662516 0.5167937 0.004380772 0.34552184 0.77742404 0.6938059 -0.10005935 -0.36807394 0.091871165 0.14891167 0.30067062 -0.4489475 -0.25896794 0.33643076 -0.26916984 0.21289952 0.41816935 -0.06840371 0.32015824 -0.049814362 -0.10097639 0.40456146 0.18263453 -0.042988297 0.19489735 -0.4089536 -0.019263431 -0.22767894 -0.29719558 -0.467442 0.22684568 -0.45127976
trump -0.5865088 0.976319 -0.8651144 0.1007452 0.22612776 0.5191795 -0.11759461 -0.11143565 0.09271865 0.18466493 0.08467808 0.257938 0.2061092 0.72612226 0.056303892 -0.021514928 -0.099235356 -0.28642243 -0.27045354 -0.5450256 0.10675994 0.49319452 -0.16428094 0.82737356 0.15872274 -0.7184486 -0.22724795 -0.33470392 -0.6118642 -0.29468647 -0.217736 0.18329296
going -0.14338118 0.528675 0.05389253 0.16174515 0.40929964 0.49092174 -0.6263985 -0.4570245 0.16662307 0.072113626 0.112576775 -0.2610838 -0.13845512 0.1204453 -0.076397024 -0.06213708 0.36415607 -0.089134164 0.2862162 -0.060880896 0.22811097 0.5682011 0.08889219 0.66744703 -0.02781623 -0.40664485 -0.04366796 -0.08831365 -0.7680421 -0.4033111 0.45123667 -0.25214055
vote -0.33863822 0.63774997 -0.233486 0.11628204 0.2708164 0.5560229 -0.28410208 -0.39971453 0.15287094 0.15858616 0.067331746 -0.09057479 -0.17962997 0.28231037 -0.2313373 0.119290516 0.20609786 -0.115169674 0.118694246 -0.25555298 0.116847716 0.31267223 -0.035903044 0.29992992 0.15968336 -0.2378526 -0.0047593256 -0.0699597 -0.47096807 -0.23722863 0.4178686 -0.17239001
less 0.102296226 0.25096276 0.024130808 0.005413623 0.81662744 0.8949714 0.013923626 -0.21722554 0.4220063 0.12408177 0.15202217 -0.7954092 -0.24758051 0.61856234 0.08950224 0.32623333 0.48528287 0.06651156 0.3238464 0.035790045 0.018425 0.14162897 0.067449704 -0.18225557 0.09785366 -0.66213894 -0.04873782 -0.11006371 -0.37537342 -0.6547579 0.42857856 -0.45189825
administration -0.4708914 0.5308076 -0.74722326 0.39367536 0.72388035 0.6611978 0.26929697 -0.19723509 -0.10902436 0.12140744 0.033730324 0.14636503 -0.17286327 0.6993831 -0.23361483 0.31686902 -0.070563264 -0.40750185 0.2830704 -0.49438173 0.25225055 0.33184704 -0.21634117 0.30218822 0.4143799 -0.115597814 -0.13472119 0.2179798 -0.4790383 -0.5448576 -0.035284586 0.3370974
my -0.24823068 0.5420729 -0.32145253 0.22578849 0.39590105 0.56707877 -0.08637656 -0.38897902 0.20756294 0.12194565 0.040688284 -0.19612254 -0.21286109 0.46920294 -0.11194287 0.089888714 0.13433501 -0.12550266 0.12839691 -0.32500452 0.117493585 0.30522934 -0.022689585 0.29491726 0.31442124 -0.18076219 -0.04590171 -0.012961434 -0.29735866 -0.42425144 0.19959278 -0.2035592
after -0.2756989 0.48229215 -0.22067146 0.23989886 0.30542555 0.5446979 -0.038522962 -0.3695348 0.1491455 0.15853432 0.008219169 -0.2704817 -0.14501889 0.4987768 -0.13299654 0.055633068 0.23591715 -0.04785697 0.118949175 -0.41855085 0.0479515 0.17289923 -0.07476997 0.1903176 0.26614556 -0.15689942 -0.1591424 0.06468075 -0.2864291 -0.3724817 0.25187594 -0.31857163
increase -0.29261822 0.62010515 -0.018675884 -0.22499941 0.42367718 0.8078512 0.1663626 -0.3805866 0.07013986 0.13471162 -0.17180808 -0.36902714 -0.43988818 0.19389527 -0.124441825 0.3206227 0.7039582 0.13828279 0.32106522 -0.30642846 0.031086532 0.104053885 -0.14587581 -0.07698924 0.23616928 -0.18644913 -0.054559372 0.05085744 -0.31647977 -0.26848295 0.58278286 -0.19932288
county -0.25377938 0.65862423 -0.38338128 0.12636936 0.45663422 0.5206481 0.1150493 -0.31668013 0.04027682 0.18113285 0.053643614 -0.26857194 -0.19377476 0.33645704 -0.20284216 0.12458151 0.24668725 -0.112974495 0.045111008 -0.29824883 -0.015390468 0.18284166 0.01646688 0.1560115 0.31577638 -0.2835702 -0.17682955 -0.12737994 -0.20468931 -0.25148728 0.20581195 -0.08000006
5 -0.091678865 0.24740025 0.13826056 0.027720375 0.6911748 1.1077106 0.34843805 -0.2582897 0.27265874 0.31980267 -0.14133362 -0.86319876 -0.30184862 0.54481584 0.06278059 0.2536107 0.9293395 0.34462965 0.024420572 -0.29525858 -0.0046653994 -0.12271635 0.3459808 -0.416987 0.21380833 -0.47753018 -0.42737672 0.022758694 -0.4412029 -0.4545999 0.6174374 -0.34629643
them -0.16958822 0.5478968 -0.09084253 0.12791559 0.40130225 0.5650578 -0.31458357 -0.37565595 0.21608776 0.11827613 0.08509178 -0.361191 -0.11853138 0.23832102 -0.19853123 0.014885989 0.3378046 -0.09744741 0.22267106 -0.09050727 0.09577992 0.35874435 0.11157687 0.3359066 0.13575512 -0.2817348 -0.044867005 -0.11437946 -0.4823143 -0.3086736 0.31621748 -0.27813223
your -0.21564852 0.48084357 -0.07994512 -0.12141467 0.24340631 0.5107555 -0.5176942 -0.5271034 0.2885041 0.07963684 -0.014992384 -0.37768754 -0.11142013 0.28791595 -0.22652064 -0.13654263 0.38307568 -0.040338125 0.30155024 -0.21629883 0.32842362 0.35065222 -0.04939695 0.6458797 -0.0665773 -0.032990754 -0.07207658 -0.022663292 -0.5797731 -0.17042358 0.49589038 -0.33784786
oil -0.1114614 0.5467519 -0.21100579 -0.009216742 0.52115566 0.6156464 -0.1219451 -0.287386 0.18923512 0.15660985 0.09683942 -0.395598 -0.18855383 0.30757833 -0.2502634 0.12968592 0.40091333 -0.010338656 0.23192982 -0.18520343 0.10883231 0.12441557 -0.09626691 0.17892157 0.09411334 -0.2782875 -0.062086336 -0.1121348 -0.28086644 -0.22240463 0.42346868 -0.19001976
took -0.61193794 0.50090957 -0.67685026 0.63373345 0.5868632 0.6624066 0.29516375 -0.20484173 -0.14354497 0.22920641 0.1493645 0.062872544 -0.17451376 0.84883195 -0.03261455 0.037995398 -0.29320002 -0.30487758 0.090484135 -0.44293272 0.14530326 0.42998496 0.11494556 0.53856945 0.53151727 -0.15755552 -0.23895514 0.20810531 -0.44272396 -0.5482934 -0.109122135 -0.044520855
campaign -0.509065 0.566171 -0.5147154 0.15408693 0.315575 0.5227547 -0.07628468 -0.19941603 0.08820498 0.20995073 -0.07081117 -0.051957667 -0.07678851 0.64586765 -0.03797462 -0.016475119 0.058251947 -0.11413612 0.018060343 -0.40603718 0.17603713 0.24080932 -0.116951086 0.47080514 0.22461626 -0.20824134 -0.2748191 0.08236133 -0.44242412 -0.2431589 0.12358313 0.09244173
've -0.14806642 0.58669055 0.09949205 0.7851905 0.56033725 0.6751053 0.023016827 -0.4594029 -0.12984 0.11056712 0.5050218 -0.586504 -0.25161183 0.7900306 -0.116810285 0.035750076 0.20387678 -0.09203504 0.36140054 0.07367485 -0.13939077 0.37405697 0.6816082 0.17265972 0.26592255 -0.26605004 -0.09933736 -0.008206113 -0.64520663 -0.58528364 -0.20574313 -0.7945497
democrats -0.262388 0.65041804 -0.39349464 0.09369125 0.37466297 0.5977248 -0.18709019 -0.33877668 0.16050506 0.19212301 0.06644165 -0.07139785 -0.17154682 0.43100464 -0.24058858 0.11796946 0.14027023 -0.13083826 0.036975816 -0.42009196 0.16829084 0.24638444 -0.26463297 0.25893018 0.23235358 -0.2677633 -0.11216685 -0.077868156 -0.34702745 -0.18158652 0.2958981 0.01245075
highest -0.23103888 0.8579059 -0.25059077 0.28167897 0.8683453 0.5881919 0.3086725 -0.46400735 -0.107273534 0.11914513 0.21563739 -0.43085524 -0.36826494 -0.00052895606 -0.45651597 0.3520875 0.49958825 -0.20091453 0.26064768 -0.2910476 -0.21406536 0.27973318 -0.09410741 -0.17789213 0.55004746 -0.32315198 0.07348705 -0.29493386 0.0390676 -0.32153302 0.20066182 -0.10887792
half -0.03368845 0.38177118 0.005168232 0.20057453 0.78906333 0.8668358 0.13720971 -0.2862649 0.22446217 0.2715521 0.05273571 -0.56417567 -0.3266516 0.45108777 -0.16693495 0.2780225 0.63866776 0.14454821 0.185051 -0.22681962 -0.052471016 0.032879405 0.13857152 -0.3316782 0.2885765 -0.39071053 -0.10068742 -0.057362143 -0.22901955 -0.488455 0.45916587 -0.31920838
social -0.19961928 0.8223155 -0.124387674 -0.47182375 0.14798936 0.60401875 -0.72976923 -0.39789787 0.31237888 -0.32302353 -0.43688315 -0.52228004 0.09947108 0.48354387 0.22946781 0.13775328 0.40925774 0.20236048 0.08770616 -0.1594707 0.34440678 0.24461569 -0.31596982 0.81184995 0.3580594 -0.4335666 -0.14057742 0.2009475 -0.30549645 -0.06061182 0.44827017 -0.24009727
education -0.2549922 0.5228554 -0.32210386 -0.039839312 0.3697449 0.5679008 -0.053024746 -0.36419493 0.20808107 0.2221567 -0.11812225 -0.3878612 -0.20591466 0.3736067 -0.30670235 0.084665634 0.44727746 0.047189016 0.13919006 -0.3968132 0.1429181 -0.009934953 -0.19275782 0.095016055 0.23859523 -0.20180812 -0.20182706 -0.03565682 -0.267741 -0.18153088 0.5094515 -0.041743085
romney -0.7118759 0.83604497 -0.9382551 0.111019835 0.090765506 0.21028005 -0.1675099 -0.3636504 -0.1433316 0.186918 -0.048930712 0.17958857 0.0482572 0.90187716 0.053107552 -0.13302892 -0.13700521 -0.21067545 0.032946996 -0.5128367 0.26971376 0.46113828 -0.15928192 1.0486491 0.39495265 -0.15806933 -0.5425714 -0.04605846 -0.6030401 -0.38089663 -0.04210919 0.2157077
which -0.18663293 0.53511137 -0.25966382 0.10642269 0.3762567 0.53484523 -0.3268417 -0.47278374 0.14548974 0.08094803 0.037782956 -0.12950821 -0.21657948 0.25095332 -0.24088666 0.04659225 0.22773756 -0.13857691 0.16196182 -0.37544253 0.12406366 0.31413993 -0.14134902 0.27967888 0.16974638 -0.2065739 0.006196354 -0.0702887 -0.4153535 -0.36511347 0.41120985 -0.22316475
history -0.34242207 0.81559604 -0.40569076 0.24287681 0.7478742 0.66119605 0.14494264 -0.49355608 0.044665422 0.15305173 0.17537484 -0.07712185 -0.43316925 0.19169876 -0.44953433 0.47860166 0.29297566 -0.044427596 0.06203156 -0.4155756 -0.1351588 0.30927792 -0.20521058 -0.16587324 0.64807564 -0.37654543 0.11910756 -0.26438618 0.13469586 -0.25526896 0.31496924 -0.06186662
3 -0.10696031 0.18903388 0.1278773 0.01170469 0.68418103 1.0800059 0.3975081 -0.20703444 0.22195375 0.3354835 -0.20474736 -0.8854311 -0.33002865 0.5299038 0.07620334 0.23042099 0.8812138 0.32409617 0.08037489 -0.30355114 -0.002137929 -0.09508899 0.34641516 -0.29388687 0.19977075 -0.43094262 -0.4371556 0.050478097 -0.51268446 -0.5726069 0.61676246 -0.3569726
some -0.1451178 0.6115783 -0.13862687 0.16229811 0.53656495 0.53206754 -0.1770835 -0.36122248 0.13362609 0.099303916 0.09204907 -0.32284296 -0.18922304 0.23774225 -0.3551092 0.010308082 0.38165334 -0.085179344 0.13710889 -0.20533422 -0.04688336 0.24381837 0.03942813 0.10479247 0.35766274 -0.34796247 -0.08266815 -0.25467506 -0.23209792 -0.27955607 0.2747285 -0.16292818
like -0.24361113 0.62189454 -0.18595876 0.10010771 0.31129614 0.4316334 -0.43123376 -0.45319676 0.10794674 0.046705466 0.074837275 -0.21928419 -0.06219023 0.26920247 -0.33341533 -0.092841096 0.27213442 -0.17697978 0.20220889 -0.264787 0.18359268 0.34865642 -0.14904055 0.47015202 0.14086647 -0.1407927 -0.097791195 -0.09663732 -0.46034017 -0.20568952 0.28748572 -0.26910144
cuts -0.3807138 0.4815616 -0.2186711 -0.3883259 0.2904055 0.6442867 0.108915955 -0.3493695 0.10672128 0.17507808 -0.3170982 -0.3257188 -0.3546298 0.35868707 -0.024566429 0.16599081 0.6401385 0.1235192 0.3089648 -0.39758703 0.245835 0.09357283 -0.24861963 0.35989878 0.1773172 -0.06099442 -0.19258901 0.17586595 -0.4163881 -0.28807867 0.57522726 0.00650098
john -0.68113893 0.7452591 -0.8788543 0.07017521 0.103459954 0.5248958 0.0019210709 -0.17377008 0.06608596 0.28807002 -0.056512486 0.14339265 0.015763603 0.8047689 0.061208617 -0.0729744 -0.011814092 -0.21699364 -0.079876006 -0.56971425 0.25907516 0.26337674 -0.2197845 0.62720424 0.3817907 -0.31674775 -0.46296367 -0.06632392 -0.4206085 -0.16693595 0.13488257 0.43711942
five -0.15234558 0.6358368 -0.01605418 0.33718994 0.47971052 0.7979952 0.2717414 -0.45439243 0.16810635 0.04646487 0.116 -0.43309575 -0.32282424 0.3950547 -0.19265875 0.28341874 0.5076601 -0.011870316 0.043769628 -0.36283877 -0.27864718 0.22563158 0.24268663 -0.3192066 0.48000103 -0.41234338 -0.055406347 -0.08009486 -0.012708643 -0.4958486 0.20510392 -0.33676395
before -0.41175944 0.62178546 -0.39108258 0.38507625 0.42223394 0.5423153 -0.11822055 -0.34218195 0.0457911 0.1724591 0.18222532 0.018038247 -0.16420974 0.59396154 -0.1441635 0.1113871 -0.054059125 -0.2216874 0.12029631 -0.3882558 0.06120478 0.37626475 -0.055559494 0.33254564 0.32636946 -0.15895972 -0.05243414 0.03037075 -0.36179063 -0.34803423 0.07985805 -0.16248095
georgia -0.16787545 0.6456079 -0.26789755 0.14031853 0.51740146 0.5616061 -0.00044175735 -0.31502318 0.07404691 0.207325 0.08107024 -0.29992077 -0.21661481 0.24020328 -0.27307448 0.11819426 0.36261165 -0.117991954 0.0953745 -0.3409107 -0.005787393 0.18711422 -0.04043209 0.018887106 0.32602617 -0.36563557 -0.10880344 -0.19314723 -0.24900703 -0.30242157 0.28193304 -0.07205168
those 0.007185052 0.51222754 0.0134460945 0.17934899 0.53572655 0.6288759 -0.28863758 -0.3542211 0.25361896 0.12864806 0.12557755 -0.44786802 -0.0881987 0.3302133 -0.25577062 0.043969143 0.38927412 -0.10058881 0.20587848 -0.122355595 0.052547127 0.24678186 0.0803742 0.17587979 0.17189978 -0.337403 -0.07854933 -0.2005075 -0.4180335 -0.28900826 0.40994927 -0.30590516
donald -0.64011514 0.78901994 -1.1138848 0.17359076 0.36221585 0.2845995 -0.2571545 -0.30082846 0.037142433 0.14305131 0.08217133 0.17253533 0.17630868 0.7422827 -0.030010851 0.047224876 -0.072997645 -0.5504727 -0.22697526 -0.686992 0.071886964 0.31169355 -0.003117967 0.869626 0.28220347 -0.6651307 -0.47148636 -0.3307568 -0.64175737 -0.03486551 -0.013806484 0.3197476
rick -0.76432264 0.5826668 -1.1044997 -0.0005032643 0.13571234 0.20172499 0.22791481 -0.22670738 -0.15449522 0.31221652 -0.181636 -0.25798112 0.04936193 0.9094987 -0.10198079 -0.39127123 0.16047063 -0.27769583 0.052541 -0.6232046 0.29326802 0.13517018 -0.023640426 0.8268239 0.42612767 -0.18458319 -0.76099944 -0.10446949 -0.41060308 -0.24314915 0.32190716 0.5587138
during -0.4040265 0.57900596 -0.42117023 0.32480192 0.4641662 0.6489242 0.2857206 -0.31425464 -0.028910866 0.22575614 0.0024767728 -0.10326222 -0.20915417 0.59320825 -0.13427304 0.16626376 0.18617946 -0.08342625 0.11361149 -0.5102027 -0.015597827 0.11470963 -0.06590708 -0.01805269 0.39402702 -0.20719439 -0.22613892 0.06444139 -0.12865986 -0.4190678 0.10109022 -0.07594778
nation -0.22831559 0.79529214 -0.26909652 0.2148885 0.8133694 0.6227862 0.10293201 -0.5458387 -0.02680032 0.11154662 0.17889874 -0.112385966 -0.44804686 0.10560082 -0.50975966 0.39534056 0.4044778 -0.060815983 0.16142413 -0.33770788 -0.14450145 0.28415123 -0.14796619 -0.19538377 0.5335004 -0.2891553 0.08467906 -0.18221998 0.055506226 -0.3032978 0.34176144 -0.2310569
private 0.16966465 0.39606783 -0.07533904 0.21185458 0.74688065 0.58521664 -0.09306176 -0.43789822 -0.012723587 0.27422035 -0.061760582 -0.5361251 -0.07415058 0.21543798 -0.43531796 0.050998535 0.64581925 -0.05310573 0.37647223 -0.3321661 0.07574405 -0.06834017 -0.17455079 0.0026700941 0.16227575 -0.13217172 -0.34388152 0.028852135 -0.4322449 -0.46794993 0.29850662 -0.40164462
republicans -0.28248 0.6608683 -0.37333834 0.1765071 0.2951122 0.5625843 -0.19966161 -0.30041414 0.12803404 0.23128448 0.10361006 -0.12833883 -0.09861661 0.43315473 -0.13994627 0.014636695 0.14529836 -0.13711438 0.034126684 -0.34265023 0.10334449 0.30747956 -0.09116609 0.338728 0.2396416 -0.30192915 -0.19784513 -0.1494696 -0.39657757 -0.15501401 0.26141685 0.0141424155
gun -0.19914028 0.67460746 -0.3418325 0.045768272 0.33816028 0.48671353 -0.2208989 -0.31156638 0.13406754 0.16622229 0.06909381 -0.2230123 -0.06951573 0.33375958 -0.25040573 -0.022815766 0.27350655 -0.11316993 0.003460947 -0.30708268 0.07368943 0.20811239 -0.07848922 0.32438803 0.22428739 -0.29590136 -0.12605016 -0.16049226 -0.31039107 -0.12309116 0.33309394 -0.12342771
go -0.1681767 0.51252186 0.04526623 0.12219305 0.3145066 0.64285415 -0.48515105 -0.49388593 0.22407338 0.13265644 0.13113298 -0.37289587 -0.1317331 0.22897498 -0.16385248 -0.025068406 0.3598971 -0.1346948 0.29331413 -0.051023867 0.212917 0.4348404 0.20646062 0.48802593 -0.01156974 -0.18986796 -0.0120905405 0.019835422 -0.71209043 -0.37499526 0.3989225 -0.4043879
support -0.36646283 0.65475446 -0.28152964 0.058737632 0.24555701 0.48195085 -0.34734356 -0.38704357 0.18746163 0.13780488 0.03215826 -0.124499135 -0.10902156 0.4064269 -0.23509373 0.012214042 0.19963503 -0.10427753 0.13221909 -0.3269891 0.19489698 0.19051452 -0.13687108 0.36355692 0.14552374 -0.17218207 -0.11053421 -0.029891485 -0.45209074 -0.16485594 0.33962816 -0.10904106
work -0.063901626 0.6075356 0.03497305 0.15326242 0.525512 0.63071203 -0.33061463 -0.4367419 0.19989015 0.10194929 0.137131 -0.4666852 -0.14467227 0.21165022 -0.29450002 0.060454693 0.39646193 -0.08926414 0.22055747 -0.029609561 0.013273603 0.40211594 0.15529834 0.21950383 0.09943867 -0.35043445 -0.008434255 -0.20876157 -0.4124071 -0.329154 0.36853325 -0.34683827
program -0.17945212 0.5116064 -0.32897952 0.022330038 0.35536745 0.513789 -0.32420465 -0.44326168 0.15613885 0.17279224 -0.065876424 -0.17786042 -0.062276833 0.33817908 -0.31025654 -0.097949736 0.25054455 -0.15797368 0.19160189 -0.4556145 0.26837122 0.14131898 -0.28458428 0.39855528 0.106071055 -0.056086957 -0.119509086 -0.0058007045 -0.4187242 -0.24187437 0.4210167 -0.22076368
make -0.23028424 0.5853514 -0.0051736506 0.075956956 0.28045064 0.5676245 -0.4047856 -0.398981 0.105524324 0.17304021 0.1181726 -0.3381582 -0.116339855 0.29124647 -0.15656649 0.0025525729 0.37992483 -0.06510019 0.3065435 -0.14267701 0.12728506 0.33907056 0.039970856 0.35110012 -0.01883819 -0.23113061 -0.12760949 -0.020958789 -0.6140778 -0.24317116 0.38245663 -0.4070522
funding -0.23787904 0.5076391 -0.29194692 -0.15589155 0.33744177 0.59120035 -0.036165796 -0.4148813 0.2247353 0.1787544 -0.22609544 -0.38327417 -0.21651961 0.29568413 -0.2272459 0.15168098 0.47767094 0.052139927 0.075760126 -0.4420529 0.10734126 0.00655805 -0.163052 0.2274068 0.18921655 -0.14689974 -0.16979879 0.011626561 -0.29889372 -0.19519159 0.55636555 -0.14060423
schools -0.11862476 0.5572566 -0.15749708 0.049663763 0.50013196 0.5165691 -0.08816533 -0.43298852 0.25032526 0.16180912 -0.02285932 -0.5970704 -0.14273235 0.15584111 -0.36709645 0.12309331 0.54489857 -0.012961606 0.1293908 -0.27645946 -0.060265403 0.08215544 -0.07021529 0.10815044 0.2735626 -0.30335218 -0.159867 -0.115465 -0.13348879 -0.22711106 0.4543404 -0.3490652
number -0.10856963 0.57981193 -0.13012443 0.26969558 0.72229844 0.6365313 -0.026351739 -0.43995115 0.14670181 0.1346262 0.14858529 -0.30296662 -0.2153088 0.18147638 -0.4954532 0.23276715 0.4964002 -0.102490604 0.14271069 -0.2543887 -0.110516146 0.14112785 -0.041722495 -0.15116169 0.4326727 -0.38345054 0.022325829 -0.30163535 -0.09211059 -0.35177985 0.38464427 -0.19876277
almost -0.018018711 0.4228011 -0.0056305705 0.25070554 0.71556014 0.78213733 0.15847278 -0.3237797 0.15522657 0.2283926 0.10344017 -0.67192584 -0.24450333 0.38476372 -0.12633303 0.24423599 0.6159852 0.11639804 0.2367164 -0.21192607 -0.13635726 0.084741555 0.14966105 -0.24018642 0.25198528 -0.38414627 -0.16780564 -0.07157894 -0.18561377 -0.53648424 0.38840455 -0.49469352
created 0.058137864 0.4074983 -0.19072907 0.47320688 0.9341263 0.69542 0.15405045 -0.27149937 -0.025067123 0.29153126 0.1838645 -0.44970533 -0.24137673 0.4270457 -0.30163273 0.22924308 0.49472812 -0.11697615 0.3499589 -0.27168927 -0.055764712 0.15235445 0.13085535 -0.17034245 0.36034477 -0.2479458 -0.27093706 0.0057313787 -0.34033957 -0.6140865 0.04259374 -0.31279984
actually -0.1817333 0.64838743 -0.23366384 0.20638841 0.4695523 0.51677126 -0.19570659 -0.3047277 0.056203406 0.09761725 0.16848591 -0.20477854 -0.16725047 0.3310116 -0.20483318 -0.006630056 0.23434953 -0.20880692 0.2141235 -0.20565121 0.040402412 0.41235796 -0.009580801 0.3310178 0.2041337 -0.29286137 -0.11168798 -0.14350015 -0.45814845 -0.3458955 0.18509638 -0.18092707
candidate -0.7728596 1.1453606 -0.8443574 0.07816745 0.012614204 0.5770467 -0.12253028 -0.24095221 0.20684081 0.38662794 0.043134335 0.010930589 -0.13552916 0.61015654 -0.25842392 0.09638582 0.09189153 -0.028821312 -0.42869508 -0.54602164 0.058040928 0.1303188 -0.25051403 0.10348443 0.4864792 -0.5031854 -0.32237294 -0.3794179 -0.14089078 0.2595673 0.29492944 0.5829026
same -0.2318081 0.58468884 -0.15824263 0.1762767 0.47405958 0.55590886 -0.24084404 -0.3867774 0.11019812 0.13225423 0.15869969 -0.20454751 -0.16867532 0.2789849 -0.15962966 0.08287578 0.2225667 -0.11710536 0.1417037 -0.22830342 0.0032689746 0.3545662 -0.0529637 0.32116586 0.22887197 -0.29394647 -0.022653712 -0.08685524 -0.33193973 -0.34027705 0.312351 -0.2339508
act -0.09550485 0.5134525 -0.4396904 0.12454006 0.39501306 0.5271586 -0.37803844 -0.46627378 -0.026238378 0.16730374 -0.16512713 -0.054995395 0.011098268 0.3494762 -0.42487526 -0.17092325 0.17069499 -0.36432108 0.409164 -0.60677016 0.44019026 -0.005225302 -0.59830815 0.45896587 0.14561526 0.09854847 -0.118611164 0.024293374 -0.60276103 -0.41060594 0.40479976 -0.16804324
economy -0.3068641 0.5685893 -0.23137781 0.15165049 0.56431264 0.6609589 0.03543114 -0.37943688 0.058720805 0.21027198 0.09342504 -0.19619635 -0.25221625 0.32328627 -0.2626387 0.24284692 0.45175076 -0.048208438 0.05789039 -0.30527285 0.013245037 0.12593018 -0.08391077 -0.07473462 0.32837918 -0.2975224 -0.0634651 -0.04687374 -0.15393077 -0.2816736 0.38976616 -0.14849703
sen -0.7480629 0.9148261 -0.9150207 -0.020996332 0.06825157 0.5436004 -0.08409216 -0.17608361 0.19102629 0.26765198 -0.08168045 0.082234405 0.009488017 0.7762843 -0.11115536 0.023817342 0.02605966 -0.04931885 -0.2796212 -0.59262604 0.21462081 0.19062485 -0.32465452 0.367918 0.398454 -0.41307184 -0.41533992 -0.13697872 -0.31730938 0.16412172 0.1920191 0.6141072
raise -0.47227925 0.468944 -0.13597529 -0.22378322 0.19419336 0.7581531 -0.07919956 -0.4478583 0.065642014 -0.06943807 -0.15589324 -0.22383091 -0.2641688 0.42720714 0.032859292 0.048229404 0.43002117 0.00049861823 0.5076769 -0.20869552 0.24758498 0.3737367 -0.09422029 0.5374631 -0.07052748 0.00074182183 -0.19882342 0.33367816 -0.8151564 -0.3277352 0.31663406 -0.16075508
children -0.06344727 0.5282217 -0.028148983 0.09876889 0.5372496 0.6242718 -0.25160843 -0.38766086 0.18144363 0.20929974 0.056528077 -0.4333668 -0.14620408 0.2607732 -0.289519 0.0908227 0.45509085 -0.020125447 0.20821834 -0.20694762 0.090427056 0.2143099 -0.0015016097 0.14740752 0.08318789 -0.26509237 -0.10860431 -0.07969136 -0.32899073 -0.24479903 0.45047617 -0.3310481
20 -0.04815392 0.42145443 0.16819973 0.27705872 0.5652062 0.9428334 0.25048676 -0.3993693 0.2893004 0.1904154 0.005389798 -0.75612557 -0.28166336 0.5073893 -0.013690453 0.3077431 0.6770494 0.14091785 0.14124039 -0.30289853 -0.0891514 0.05879765 0.2907003 -0.381164 0.2773481 -0.41091803 -0.1856739 0.047271255 -0.264833 -0.54124284 0.3895727 -0.41813114
lost 0.10799199 0.35798085 -0.15844902 0.3863623 0.91734946 0.7546405 0.13283281 -0.17157514 0.052102096 0.36032057 0.16919239 -0.58212847 -0.16187206 0.47593144 -0.24601881 0.13340658 0.5602961 -0.040509347 0.30370212 -0.2308477 0.0489033 0.06743008 0.117108084 -0.201917 0.19931278 -0.26121613 -0.30967957 0.011986255 -0.4009159 -0.57004005 0.1436065 -0.29490265
50 -0.008285793 0.45554924 0.085986346 0.17528644 0.69249684 0.93005323 0.21942389 -0.38014287 0.25126708 0.13401812 0.016202558 -0.69570374 -0.29113308 0.37802568 -0.18912335 0.23849544 0.68959594 0.10952742 0.2395832 -0.24748908 -0.11321574 0.04100865 0.1990171 -0.4608516 0.29307747 -0.44811943 -0.19836353 -0.11445693 -0.15887935 -0.47863305 0.43022576 -0.35847288
paid -0.13178405 0.5344094 -0.0039001524 0.14805625 0.44835883 0.6051111 -0.16285932 -0.34653872 0.14570457 0.106461674 0.062838726 -0.43426678 -0.18301071 0.3344936 -0.08844826 0.06620394 0.45422387 0.04641936 0.16382374 -0.16778313 0.0045181694 0.26579827 0.08118057 0.2377702 0.15844856 -0.33326432 -0.1531438 -0.10283405 -0.41915607 -0.3235938 0.36010975 -0.31307673
obamas -0.5243999 0.62705 -0.8967707 0.09703714 0.48427874 0.6374664 0.16880183 -0.26854685 -0.044916634 0.40405348 -0.16981904 0.2807898 -0.26826987 0.59258777 -0.23025383 0.014659974 -0.23755634 -0.40427446 0.68782747 -0.7543863 0.42614838 0.4951371 -0.31356025 0.5735574 -0.034375794 0.074416526 -0.3155766 0.21281861 -0.60179096 -0.5332064 0.0084128715 0.13980287
made -0.31056613 0.5903089 -0.28645003 0.30162537 0.4416223 0.4764178 -0.12197725 -0.29681936 -0.007847228 0.17423218 0.1498494 -0.17751548 -0.120896064 0.37609258 -0.16648726 0.04226813 0.16230777 -0.16941492 0.12156899 -0.2947666 0.032821514 0.38562778 0.03787579 0.3494965 0.2779207 -0.28622723 -0.18147603 -0.121525325 -0.41347635 -0.26913118 0.11448365 -0.07635785
mitt -0.7962806 0.6549913 -1.0353053 0.0695135 0.2004175 0.31313947 -0.31256622 -0.38374686 -0.02523942 0.3071025 0.08387641 0.17395367 -0.059240058 0.7486997 0.15324174 -0.08912566 -0.12777679 -0.37875172 -0.11890052 -0.466298 0.2731793 0.46229038 -0.048568696 1.0071683 0.45786196 -0.14683211 -0.58254945 -0.100321576 -0.58646935 -0.4073934 0.17550966 0.42076775
system -0.15174608 0.5637631 -0.25682086 -0.012869169 0.42625767 0.5075039 -0.19906113 -0.5571063 0.13971388 0.12546135 -0.12192001 -0.28995037 -0.14368196 0.14556208 -0.4748403 0.08485024 0.438323 -0.13709426 0.23673877 -0.44157904 0.14513199 0.10898031 -0.30066964 0.18210815 0.19162418 -0.112300985 -0.066408604 -0.093312986 -0.24645291 -0.2356452 0.47911695 -0.28030616
she -0.4386231 0.64467645 -0.5218333 0.21522374 0.26589173 0.47247356 -0.1384259 -0.28377217 0.03402713 0.08456472 0.04744448 0.078177355 -0.062200695 0.5103962 0.06513544 -0.011016463 0.059278715 -0.24402282 -0.004302387 -0.31685486 0.092396945 0.46465418 -0.048373945 0.573623 0.30968824 -0.39318475 -0.26731807 -0.07348786 -0.522159 -0.33135366 0.0790659 -0.019204836
mccain -0.70135427 0.78951114 -0.8254545 0.10121679 0.14191146 0.52769065 -0.09993561 -0.22242625 0.114526734 0.277456 -0.046354096 0.18499407 -0.05041028 0.77935773 0.03584765 -0.14297585 -0.09587689 -0.30843762 -0.009858952 -0.67043126 0.2552318 0.3427844 -0.32429156 0.7396512 0.22621784 -0.19229877 -0.37047362 0.072134815 -0.5742576 -0.1553374 0.154499 0.31250358
without -0.19271404 0.59935147 -0.17517962 -0.0062975697 0.39718315 0.5474226 -0.1923472 -0.45804766 0.1263991 0.10319286 -0.0056614764 -0.37712523 -0.18985343 0.25392893 -0.36389032 -0.007514751 0.43123624 -0.053053763 0.30847824 -0.31828174 0.12851392 0.18177581 -0.18629423 0.18612057 0.08678548 -0.0941348 -0.11011031 -0.005994689 -0.30067062 -0.21950038 0.3640871 -0.31590933
passed -0.2917381 0.6040053 -0.42207518 0.23168495 0.41454136 0.4889842 -0.18621138 -0.39790606 0.033182114 0.18158786 0.1046022 -0.042712618 -0.15733716 0.5119039 -0.2929759 0.018342374 0.056121994 -0.21220672 0.12184876 -0.47436386 0.22962518 0.30943042 -0.12364481 0.34459904 0.24839562 -0.11055577 -0.08566742 -0.040391404 -0.40864447 -0.28889215 0.21532756 -0.118335225
n't -0.20551805 0.62417704 -0.08867031 0.38200635 0.35178143 0.4744145 -0.77704823 -0.5732836 0.069878794 0.061794903 0.29977876 -0.1379701 -0.08307672 0.3542239 -0.12483212 -0.16969308 0.09289927 -0.41811785 0.33486432 -0.20314011 0.28903246 0.71455806 0.074759305 0.99524033 -0.035317656 -0.099228956 -0.041446995 0.02057362 -0.8930152 -0.45783907 0.06976701 -0.48176092
wants -0.6556556 0.6022747 -0.6083818 -0.07206226 0.19504169 0.50562316 -0.13825971 -0.23197824 0.066120684 0.14957413 -0.1851054 -0.019880284 -0.038496085 0.5210192 -0.033245925 -0.04876958 0.051173877 -0.09329614 0.15727587 -0.30629194 0.3444153 0.4211087 -0.12407031 0.73462665 0.07642839 -0.20947148 -0.41881773 0.12417003 -0.70593977 -0.045691017 0.1358785 0.30300918
4 -0.10903311 0.20870334 0.078849524 0.05597219 0.6232941 0.97400236 0.29496074 -0.22741114 0.22735353 0.28059986 -0.17611429 -0.7895982 -0.28719622 0.5364813 0.07952581 0.19422232 0.7669973 0.28846517 0.13157691 -0.31647658 -0.00062254554 -0.108424075 0.25301582 -0.23476027 0.1868558 -0.41017616 -0.39860263 0.06753552 -0.4416814 -0.52017856 0.5871418 -0.35551903
trillion -0.23749232 0.25399816 -0.02234449 -0.10798599 0.66675735 1.0345165 0.36110666 -0.17202307 0.27584353 0.23905548 -0.20674345 -0.7629232 -0.41250908 0.4128851 0.06198822 0.31078696 0.90898496 0.45239562 0.17661394 -0.26525745 0.027303811 -0.09505589 0.16183658 -0.2833778 0.3579578 -0.32053632 -0.3692502 0.14230618 -0.39150372 -0.54353786 0.7247513 -0.32409504
high -0.15549104 0.60513395 -0.07158463 0.11518342 0.4835744 0.5034367 -0.041470416 -0.46489874 0.11070593 0.07685898 0.007194497 -0.5245405 -0.18137757 0.17542042 -0.2359651 0.12087171 0.55538183 0.008552024 0.097077884 -0.21255033 -0.15782851 0.24597926 0.10626948 0.15477473 0.3036484 -0.36240566 -0.14496973 -0.190887 -0.21203473 -0.30715021 0.37567613 -0.35812244
ohio -0.2298596 0.5994178 -0.35550117 0.16157903 0.48041075 0.55099416 -0.009769273 -0.27411312 0.111602955 0.20412411 0.074488334 -0.2664431 -0.16777213 0.41177657 -0.20140716 0.16343383 0.31689975 -0.06640591 0.08106606 -0.2840738 0.007917585 0.1704577 -0.01677026 0.06342427 0.34594706 -0.31450894 -0.18971954 -0.13281208 -0.24501593 -0.25106815 0.2430938 -0.025117313
off -0.2492698 0.46673733 -0.14161429 -0.0012420225 0.3898242 0.61564916 -0.14205551 -0.32358557 0.17284298 0.14604536 -0.08173922 -0.40258518 -0.12628783 0.331188 -0.08026474 0.051642098 0.43444568 0.0079418775 0.21018565 -0.25539243 0.07007251 0.14932066 -0.05583774 0.2321258 0.11700546 -0.24805951 -0.23084027 0.04069343 -0.39600205 -0.2770426 0.37671804 -0.24132356
40 -0.06103422 0.42689842 0.0719567 0.28915662 0.62256134 0.9342717 0.28643736 -0.345579 0.25792322 0.175787 0.044921346 -0.6862285 -0.2339845 0.510157 -0.069110915 0.269576 0.6292811 0.09796384 0.18109302 -0.27312243 -0.10496471 0.05823133 0.27495122 -0.38910812 0.3020987 -0.42318442 -0.2457234 -0.05372932 -0.19731179 -0.47573274 0.3501613 -0.3393717
her -0.3873371 0.5311707 -0.4662483 0.021954164 0.30895048 0.5486994 -0.07422402 -0.30248764 0.19397481 0.12906395 -0.13656923 -0.16627863 -0.10670235 0.45003074 -0.093430795 -0.012348081 0.17503321 -0.069929674 0.085575394 -0.34059384 0.10933259 0.27417874 -0.16904947 0.4300048 0.21998045 -0.25730997 -0.24599107 -0.017357914 -0.40366298 -0.1973335 0.23239769 0.008098021
own -0.34347454 0.48183596 -0.17971928 0.014195705 0.37289298 0.55804074 -0.33562112 -0.43828878 0.13471717 0.14447394 -0.08361218 -0.34094694 -0.07714726 0.3860459 -0.262258 -0.0695485 0.397124 -0.04145514 0.360278 -0.2890975 0.22358738 0.16832632 -0.25697872 0.42233562 -0.010628969 -0.05786093 -0.20795043 0.15168317 -0.48964942 -0.2856123 0.384348 -0.29668295
spent -0.20230082 0.36918622 -0.13646413 0.20481604 0.54442424 0.7310707 0.21060726 -0.17459042 0.11217409 0.23742071 0.020665824 -0.49579757 -0.22381093 0.62206 0.005049624 0.16464576 0.39062858 0.1513702 0.14332235 -0.26614064 0.029050464 0.09759352 0.17191619 -0.03703473 0.21308179 -0.32533553 -0.28081015 0.047278687 -0.40865734 -0.43044624 0.24137412 -0.19118312
higher -0.1105369 0.5608801 -0.20891744 0.06874643 0.6638775 0.6850748 0.079296395 -0.28851053 0.16876747 0.06466084 0.09422936 -0.44595113 -0.25928023 0.39601052 -0.08333174 0.2713543 0.3662212 -0.023700725 0.2594936 -0.15817101 -0.020332612 0.2414953 -0.05773718 -0.08835663 0.24984191 -0.42925388 -0.077413395 -0.1480039 -0.21534923 -0.42391008 0.26716495 -0.18231903
college -0.21457998 0.5335247 -0.10325181 0.09992645 0.36411896 0.53724533 -0.114863046 -0.33645496 0.21496814 0.15999599 0.057462983 -0.4644427 -0.20224847 0.32598424 -0.14331348 0.09764826 0.4154787 0.018152494 0.1429571 -0.22311655 -0.010571143 0.24008079 0.062783204 0.15643606 0.21118338 -0.3610465 -0.111869596 -0.10186539 -0.30943224 -0.310113 0.3639527 -0.26498768
got -0.17237581 0.48430967 -0.038757935 0.31530535 0.43773767 0.6044652 -0.13701673 -0.35020855 0.090366885 0.20040055 0.18071544 -0.37879595 -0.14677444 0.53633267 -0.034044262 0.023702765 0.28498045 -0.053658538 0.17091973 -0.12064274 0.079414025 0.30558306 0.27623367 0.29969615 0.11028762 -0.21653488 -0.15789734 -0.0113038095 -0.5047675 -0.35524607 0.10627766 -0.434841
take -0.30717093 0.5327437 -0.10842975 0.021816334 0.22005728 0.5264835 -0.48099756 -0.44973233 0.115890734 0.16999193 -0.015960865 -0.25776976 -0.06760536 0.2904792 -0.15740104 -0.09934302 0.33976215 -0.14199144 0.30952874 -0.20371789 0.21670966 0.36181858 -0.0024161784 0.55821073 0.0018571255 -0.11196158 -0.1538787 0.0717529 -0.7205317 -0.27574623 0.39519036 -0.31576356
30 -0.10295031 0.38226885 0.051568273 0.2943377 0.5432025 0.8641252 0.25178093 -0.3908801 0.24483778 0.17246802 -0.013142616 -0.59763604 -0.25678355 0.49544898 -0.05767271 0.27260914 0.5499244 0.06460062 0.18719444 -0.35308868 -0.0573661 0.08924894 0.23614226 -0.29314515 0.27830195 -0.3147232 -0.17274338 0.051499948 -0.25560477 -0.577763 0.35315675 -0.3874911
proposed -0.5187891 0.54874694 -0.5403919 -0.041868124 0.26395205 0.51415014 0.056580417 -0.30103952 0.036028992 0.25449425 -0.14942604 -0.06629257 -0.18596618 0.48166314 -0.13399218 0.07575712 0.20686983 -0.08599611 0.1318678 -0.5218943 0.2170549 0.1411845 -0.24010244 0.3158501 0.24635653 -0.13737606 -0.28720716 0.074982755 -0.40307835 -0.1696554 0.32880715 0.17010115
where -0.1764718 0.71259 -0.06233631 0.35783643 0.4958626 0.47356507 -0.35438904 -0.42953423 0.039733127 0.061695885 0.2920981 -0.2522675 -0.14876762 0.34851977 -0.32280838 -0.042175174 0.27677718 -0.16971299 0.14120701 -0.09994034 -0.067447774 0.41303223 0.18158409 0.3232782 0.26451898 -0.3549318 -0.024501923 -0.28413847 -0.37267777 -0.3234622 0.17000568 -0.35658896
stimulus -0.24694079 0.38869888 -0.37979344 0.006981479 0.47676638 0.63456905 -0.16485976 -0.32970443 0.0910573 0.19335833 -0.13398598 -0.08981177 -0.17113174 0.47104245 -0.28509757 0.047027104 0.22583424 -0.14259768 0.16927494 -0.59035033 0.37333795 0.12640913 -0.32077157 0.29435536 0.17635068 -0.051865138 -0.18689369 0.12596183 -0.50805694 -0.27075276 0.41294068 -0.10149265
court -0.5312089 0.9735467 -0.525527 0.029294224 0.14123493 0.6368204 -0.19719103 -0.22621249 0.27844244 0.27768192 0.1046654 -0.09628717 -0.08112643 0.5089731 -0.2225712 0.1255851 0.3066018 0.10322229 -0.4380487 -0.38623786 0.008244649 0.09621035 -0.120913155 0.009121323 0.47507754 -0.52191156 -0.21571426 -0.30248895 -0.14636095 0.20838161 0.33693948 0.34002066
immigration -0.29611635 0.5988783 -0.51997364 -0.06406175 0.2630006 0.48736787 -0.4461074 -0.41017538 0.17757405 0.17204441 -0.1333546 -0.04635584 -0.097025596 0.3572134 -0.3927289 -0.083811894 0.17122802 -0.20523001 0.16224815 -0.550036 0.3881461 0.16801065 -0.40841785 0.5221255 0.07365944 -0.054778676 -0.14571655 -0.022413647 -0.53330296 -0.11503285 0.4225796 0.012441352
department -0.42647475 0.68113995 -0.45652786 -0.030977739 0.33975318 0.56263655 -0.13591999 -0.37433812 0.288543 0.23464559 -0.055258993 -0.14112504 -0.11530376 0.39102468 -0.31657484 0.13135685 0.39053705 0.10067175 -0.1664655 -0.41247964 0.10018886 0.02622548 -0.22761637 -0.0038436172 0.3943193 -0.4544885 -0.17283541 -0.29455552 -0.07212234 0.054070566 0.44510424 0.15754978
immigrants -0.06900294 0.628801 -0.07537089 0.006890976 0.37703785 0.64204305 -0.38070935 -0.28375894 0.20630081 0.22518381 -0.10541519 -0.44285777 -0.13437855 0.3204525 -0.24933897 0.013621182 0.46245888 -0.06342801 0.14068133 -0.12928776 0.19580892 0.12642814 -0.13704678 0.25032222 0.110984124 -0.3242158 -0.21563317 -0.23085831 -0.4000738 -0.122314334 0.36940408 -0.23094523
costs -0.034220226 0.41714826 -0.08265343 0.044564594 0.4566945 0.61709756 -0.3357938 -0.44271162 0.1535448 0.19495581 -0.049461197 -0.4016497 -0.13036455 0.29874822 -0.3645681 0.01483576 0.42410806 -0.017668737 0.3751853 -0.36503032 0.29082236 0.057667814 -0.25263795 0.20338152 0.060761534 -0.02589423 -0.061064415 -0.014727973 -0.43721303 -0.33944225 0.5296732 -0.3713765
many -0.07709157 0.60348165 -0.13650276 0.1944314 0.5039346 0.5250526 -0.2389605 -0.36356884 0.102161415 0.11358324 0.18286316 -0.34324372 -0.100324534 0.2807957 -0.26595998 0.086623974 0.34844258 -0.106479265 0.1209569 -0.13839279 -0.10496055 0.3523959 0.07402164 0.25683928 0.3160373 -0.39753383 -0.054340772 -0.1619368 -0.31808904 -0.41894704 0.27262264 -0.27391607
companies -0.00022335972 0.44299918 -0.14526539 -0.01815753 0.47388533 0.56435937 -0.3635247 -0.38499445 0.1974487 0.21534772 -0.023837542 -0.5139457 -0.039351255 0.2284328 -0.30126417 -0.057197962 0.44756174 -0.08443103 0.40601173 -0.27549466 0.29350287 0.12681161 -0.2757267 0.33135423 0.02479318 -0.084479846 -0.15387763 -0.03416684 -0.4901416 -0.28644025 0.39354762 -0.34452796
rep -0.9048757 1.0874085 -0.9514711 -0.15653601 -0.07960812 0.5974272 -0.13601992 -0.21276587 0.3433168 0.3673307 -0.06325769 -0.0005116576 -0.024975333 0.76805687 -0.16050181 0.10296938 0.24848175 0.14422765 -0.5494826 -0.64539826 0.20447855 -0.039138027 -0.30864796 0.104335785 0.48049507 -0.5764381 -0.45513245 -0.29056236 -0.15091756 0.4115711 0.42782915 0.7110393
walker -0.7299015 0.55628335 -0.96305466 0.07392092 0.22478311 0.21896447 0.19349253 -0.26299915 -0.24955708 0.2880885 -0.17121178 -0.3989431 0.0027615342 0.93834656 0.013940159 -0.45191386 0.29210457 -0.2969235 0.12195292 -0.5272159 0.22021323 0.11846176 0.066668294 0.893459 0.40954992 -0.23007102 -0.8342763 -0.04960109 -0.38636017 -0.41326597 0.35247624 0.5033707
should -0.31989425 0.70010996 0.06349755 0.1504075 0.34758824 0.34559083 -0.61277515 -0.51474 0.09956027 0.003404587 0.19124678 -0.33167067 -0.1274125 0.28608578 -0.17547314 -0.18387045 0.39072445 -0.012663071 0.29662094 -0.123764105 0.31164962 0.61434263 -0.010575885 0.7499197 0.029057054 -0.22998342 -0.11636773 -0.025889713 -0.65935767 -0.1462159 0.14083378 -0.36739647
top -0.24939065 0.46591994 -0.17291696 0.14649332 0.5927722 0.8018024 0.2277724 -0.33724663 0.107838556 0.1455682 0.043182768 -0.36160865 -0.32346123 0.293857 -0.21056756 0.24112856 0.5551728 0.08360036 0.11326412 -0.28868216 -0.105370805 0.04122866 -0.02304099 -0.25393653 0.40214518 -0.37602404 -0.15876453 -0.08624007 -0.10791014 -0.37864462 0.4632283 -0.25087374
supported -0.4390117 0.5637304 -0.556276 0.06299581 0.2844284 0.48798624 -0.07351911 -0.23587433 0.07504739 0.1860755 -0.12913273 -0.029259123 -0.06398107 0.5897621 -0.08395339 -0.043180913 0.10877896 -0.1339385 0.07012448 -0.49190447 0.21556896 0.18164131 -0.19212472 0.47114232 0.19499804 -0.14836952 -0.34693572 0.04170223 -0.5093193 -0.15141726 0.18381098 0.12006118
reform -0.19046812 0.53318185 -0.5460452 -0.16956441 0.28485987 0.56296736 -0.59243417 -0.608064 0.24677773 0.21191014 -0.29443485 -0.07671157 -0.02147498 0.34448826 -0.6028866 -0.16028456 0.21578142 -0.3142488 0.4152711 -0.75626755 0.6221831 0.10122004 -0.6864976 0.66999173 -0.025833996 0.2629427 -0.067455165 0.10170422 -0.69743544 -0.26826224 0.6153189 -0.21058115
use -0.25980055 0.58726996 -0.13758843 -0.0065348884 0.33167535 0.5319971 -0.2586315 -0.4077443 0.15044174 0.15673576 0.0040626507 -0.3221818 -0.13727199 0.18278101 -0.27638036 0.007372063 0.36513844 -0.0852223 0.24950498 -0.1983433 0.121318 0.2620072 -0.06268919 0.33364403 0.121246636 -0.20319477 -0.07886373 -0.056635875 -0.39693385 -0.21376082 0.40002295 -0.22627422
being -0.16780414 0.56726855 -0.19718371 0.17508861 0.43699947 0.53741974 -0.1971409 -0.29545203 0.16145007 0.18687575 0.07394862 -0.30821547 -0.13489194 0.32003993 -0.1785358 0.008219029 0.3474951 -0.07450389 0.11833533 -0.2103401 0.0071401317 0.22542064 0.04890073 0.2667645 0.21215405 -0.32094118 -0.14117247 -0.16113247 -0.36550054 -0.30544034 0.35327092 -0.18515716
